~o
<STREAMINFO> 1 39
<VECSIZE> 39<NULLD><MFCC_D_A_0><DIAGC>
~h "bin"
<BEGINHMM>
<NUMSTATES> 6
<STATE> 2
<MEAN> 39
 -5.375404e+000 -1.206931e+001 2.048721e+000 -1.215503e+001 -2.025800e+001 -1.861724e+001 -1.006869e+000 -9.497787e+000 -4.552496e+000 6.772838e-001 -9.027130e-001 -3.440333e+000 7.097003e+001 -1.041061e+000 5.073480e-001 2.394343e+000 -1.881420e+000 -1.541556e+000 1.934398e-001 2.020650e-001 -8.346594e-001 -1.008849e+000 8.702772e-001 4.528745e-002 -3.713733e-002 1.328184e+000 -7.080986e-002 2.227535e-001 -2.186753e-001 -1.205327e-001 3.966230e-001 3.807356e-001 -7.998057e-002 2.891078e-001 2.046299e-001 4.178333e-002 -1.661922e-001 -1.151637e-001 -1.150264e-001
<VARIANCE> 39
 1.192751e+001 9.342289e+000 1.401804e+002 4.340055e+001 7.044143e+001 6.780225e+001 8.125014e+001 4.985810e+001 8.844101e+001 2.237723e+001 2.837632e+001 1.411477e+001 3.462642e+001 5.279529e-001 1.461852e+000 7.353801e+000 3.562386e+000 3.974853e+000 2.736003e+000 2.987584e+000 3.170094e+000 6.581100e+000 1.668821e+000 3.048083e+000 1.610095e+000 2.206397e+000 1.025340e-001 1.276592e-001 1.288666e+000 3.754463e-001 7.465554e-001 2.321159e-001 2.713808e-001 4.493056e-001 1.045238e+000 3.951190e-001 6.020610e-001 2.770427e-001 2.820411e-001
<GCONST> 1.185696e+002
<STATE> 3
<MEAN> 39
 -1.082385e+001 -5.099217e+000 1.122743e+001 -2.647772e+001 -1.954887e+001 -9.854982e+000 -4.857548e+000 -1.372634e+001 -7.808806e+000 3.535213e+000 -6.024249e+000 -3.065198e+000 7.829262e+001 2.981931e-002 3.754151e-001 -2.360986e-001 -3.800585e-001 8.036398e-001 4.857203e-001 -5.041516e-001 -9.286809e-002 2.280006e-001 -4.565489e-001 -9.548670e-001 5.705492e-001 -2.544783e-001 1.883225e-001 -1.746774e-001 -1.462872e-001 3.806481e-001 4.070795e-002 -1.870394e-001 -8.242789e-002 -3.343816e-003 2.140198e-002 -2.337343e-001 -1.142980e-001 9.899005e-002 -1.713653e-001
<VARIANCE> 39
 3.891713e+000 1.686131e+001 5.433840e+000 8.434643e+001 4.652544e+001 4.299104e+001 9.607732e+001 1.706112e+001 1.950761e+001 1.116071e+001 4.235008e+001 1.640392e+001 4.428080e+001 5.530771e-001 8.500775e-001 3.142112e-001 1.631986e+000 9.021853e-001 1.017020e+000 1.394125e+000 1.660876e+000 1.319079e+000 1.956003e+000 3.151398e+000 1.258868e+000 2.688576e-001 5.201175e-002 5.918563e-002 1.347066e-001 2.231192e-001 1.812848e-001 1.766789e-001 2.734498e-001 3.238482e-001 2.716222e-001 1.997673e-001 3.602701e-001 2.212089e-001 3.249142e-002
<GCONST> 8.902857e+001
<STATE> 4
<MEAN> 39
 -2.054995e+000 -7.088522e+000 6.063110e-001 -1.660577e+001 -1.108832e+001 -8.852191e+000 -1.225047e+001 -1.258710e+001 -9.308631e+000 -1.132627e+001 -1.290107e+001 3.338621e-001 7.198618e+001 4.850679e-001 1.577821e-001 -7.736866e-001 1.251033e+000 1.082862e-001 -4.244350e-001 1.129019e-001 -1.256879e-001 -4.041479e-001 -1.096884e+000 -7.623982e-002 -2.257905e-001 -9.816168e-001 -1.136360e-001 1.091390e-001 6.708375e-002 -1.462817e-001 -1.107851e-001 -9.219263e-003 7.888547e-002 -7.969926e-002 3.379604e-002 1.515454e-001 2.251723e-001 -1.219630e-001 3.300401e-003
<VARIANCE> 39
 1.341268e+001 1.021767e+001 3.219398e+001 4.995010e+001 3.047267e+001 2.854497e+001 5.510886e+001 2.947709e+001 1.963146e+001 4.955233e+001 3.621865e+001 1.877131e+001 2.161927e+001 1.033183e+000 1.385514e+000 1.648645e+000 3.229413e+000 1.104308e+000 2.183176e+000 2.603821e+000 1.742285e+000 1.864472e+000 1.850326e+000 2.755054e+000 1.334955e+000 1.705165e-001 9.609205e-002 1.239204e-001 2.008188e-001 5.008914e-001 2.285401e-001 4.278285e-001 4.788802e-001 3.630741e-001 3.790707e-001 3.796405e-001 5.508010e-001 3.314733e-001 2.690530e-002
<GCONST> 1.017557e+002
<STATE> 5
<MEAN> 39
 -5.401825e+000 -2.898716e+000 3.482841e+000 -9.274980e+000 -8.619594e+000 -9.504636e+000 -6.006595e+000 -1.238501e+001 -8.687885e+000 -8.078814e+000 -1.105383e+001 -3.180627e+000 6.254633e+001 -3.255709e-001 2.346351e-001 -3.430650e-002 3.623776e-001 4.114828e-001 3.428940e-001 -1.357678e-001 4.388348e-001 6.667765e-001 4.052984e-001 3.732550e-001 -5.774229e-001 -7.121170e-001 -3.253730e-002 -8.229233e-002 4.382809e-002 2.484024e-002 1.146575e-001 1.206224e-001 5.536043e-002 1.103653e-001 -6.262543e-002 8.855148e-002 -2.983080e-002 1.103478e-002 4.035872e-002
<VARIANCE> 39
 4.627602e+000 1.375599e+001 3.320389e+001 2.064950e+001 1.631607e+002 7.729764e+001 6.541074e+001 5.254128e+001 3.393291e+001 7.650259e+001 2.080725e+001 2.457406e+001 1.177452e+001 3.181548e-001 4.983728e-001 7.166963e-001 6.417683e-001 1.364957e+000 2.335558e+000 1.769575e+000 1.188875e+000 1.738144e+000 1.554748e+000 1.753574e+000 1.069536e+000 1.523328e-001 3.191765e-002 8.601581e-002 1.420217e-001 1.112518e-001 1.726636e-001 3.676135e-001 2.690136e-001 2.319706e-001 2.118972e-001 2.209374e-001 2.783960e-001 2.188765e-001 1.474261e-002
<GCONST> 8.988328e+001
<TRANSP> 6
 0.000000e+000 1.000000e+000 0.000000e+000 0.000000e+000 0.000000e+000 0.000000e+000
 0.000000e+000 8.196464e-001 1.803536e-001 0.000000e+000 0.000000e+000 0.000000e+000
 0.000000e+000 0.000000e+000 8.960581e-001 1.039419e-001 0.000000e+000 0.000000e+000
 0.000000e+000 0.000000e+000 0.000000e+000 8.804284e-001 1.195716e-001 0.000000e+000
 0.000000e+000 0.000000e+000 0.000000e+000 0.000000e+000 8.776251e-001 1.223749e-001
 0.000000e+000 0.000000e+000 0.000000e+000 0.000000e+000 0.000000e+000 0.000000e+000
<ENDHMM>
~h "bei"
<BEGINHMM>
<NUMSTATES> 6
<STATE> 2
<MEAN> 39
 -4.873424e+000 -1.247251e+001 -1.373488e+000 -1.322708e+001 -2.043999e+001 -1.535010e+001 4.157342e+000 -1.634877e+000 -9.149408e-001 -1.721481e+000 1.442906e+000 -2.128107e+000 7.666930e+001 -6.180555e-001 -2.752589e-001 2.426042e-001 -6.405684e-001 -1.256989e+000 -1.310458e-001 1.924775e+000 5.590522e-001 -7.555329e-001 2.409589e-001 6.124306e-001 -2.073194e-001 1.838933e+000 -8.746739e-002 2.298855e-001 1.851058e-001 -1.394225e-002 1.396057e-001 2.473818e-001 1.212651e-002 -3.346916e-001 -2.136559e-002 -4.776429e-002 -1.207982e-001 -1.357480e-001 -3.822304e-001
<VARIANCE> 39
 1.207907e+001 1.181719e+001 1.710210e+001 2.688084e+001 4.741673e+001 2.690940e+001 4.679237e+001 3.181119e+001 3.342893e+001 3.443652e+001 1.810916e+001 4.403181e+001 8.245992e+001 1.742147e+000 1.363590e+000 1.614875e+000 1.454222e+000 2.226652e+000 3.025564e+000 2.796928e+000 2.279386e+000 3.654792e+000 4.167356e+000 1.315459e+000 4.249743e+000 3.951230e+000 2.319642e-001 1.587941e-001 1.953842e-001 1.967630e-001 2.745436e-001 4.129942e-001 6.259202e-001 4.771658e-001 6.421338e-001 4.968318e-001 1.840413e-001 4.422867e-001 4.029249e-001
<GCONST> 1.121603e+002
<STATE> 3
<MEAN> 39
 -7.633021e+000 -1.085073e+001 4.337171e+000 -1.638716e+001 -2.651493e+001 -1.582996e+001 1.029517e+001 -6.380242e+000 -3.138725e+000 1.589399e+000 5.140813e+000 -2.979148e+000 7.790942e+001 1.417461e-002 5.990907e-001 8.598314e-001 -1.992478e-001 -3.115502e-001 -1.746405e-001 -6.776214e-001 -1.170089e+000 -4.080821e-001 6.106352e-001 3.473036e-001 5.555755e-001 -6.370481e-001 7.143059e-002 9.896689e-002 3.929574e-002 6.572525e-002 7.491814e-002 4.611946e-002 -2.350118e-001 -6.644413e-003 -1.221862e-001 -1.184629e-001 -5.015449e-002 8.422804e-002 -1.014126e-001
<VARIANCE> 39
 2.367771e+000 1.102567e+001 1.549349e+001 3.642108e+001 9.742631e+000 2.251684e+001 5.716871e+001 3.101789e+001 5.168264e+001 7.136875e+001 2.316253e+001 2.630720e+001 5.107951e+001 1.843750e-001 7.135326e-001 7.962821e-001 8.577239e-001 1.140172e+000 1.786719e+000 1.478895e+000 1.324918e+000 3.649439e+000 1.906713e+000 1.379489e+000 1.289208e+000 1.631724e-001 3.772119e-002 1.056225e-001 1.522215e-001 1.074768e-001 2.341682e-001 4.727119e-001 2.357239e-001 2.257393e-001 6.131532e-001 3.614359e-001 2.499996e-001 2.441778e-001 2.133464e-002
<GCONST> 8.945925e+001
<STATE> 4
<MEAN> 39
 -6.146998e+000 -4.512951e+000 1.105842e+001 -1.268397e+001 -1.485855e+001 -7.614247e+000 -2.858289e-001 -1.046127e+001 -1.227513e+001 1.503244e+000 2.209128e-001 8.923370e-001 7.147075e+001 2.027368e-001 6.841657e-001 3.210418e-001 7.570217e-001 1.464197e-001 6.047776e-001 -2.625135e-001 -1.054074e-001 -2.720111e-001 -7.740013e-001 -7.614428e-001 -8.269815e-001 -9.219906e-001 1.963843e-002 -1.062567e-001 -2.417071e-001 1.942087e-001 9.570674e-002 -1.193241e-001 1.101964e-001 2.333440e-001 4.246541e-001 1.188092e-001 -4.289307e-002 -1.222758e-001 -1.038724e-001
<VARIANCE> 39
 7.965470e+000 1.013961e+001 4.360030e+000 8.701888e+001 4.295332e+002 1.131601e+002 4.044174e+001 7.642683e+001 4.302432e+001 3.667239e+001 5.208409e+001 3.224632e+001 2.503061e+001 5.440626e-001 5.291114e-001 7.661480e-001 8.281789e-001 2.346520e+000 1.586235e+000 1.032851e+000 1.727261e+000 2.890136e+000 2.087974e+000 1.590491e+000 2.222976e+000 6.997913e-001 5.874357e-002 7.086517e-002 9.413560e-002 1.438268e-001 3.300808e-001 2.636631e-001 2.178804e-001 2.167211e-001 2.836379e-001 2.284156e-001 2.785173e-001 5.034550e-001 3.710296e-002
<GCONST> 9.846824e+001
<STATE> 5
<MEAN> 39
 -3.565128e+000 1.934817e-001 4.946229e+000 -1.006877e+001 -2.495092e+001 -1.371218e+001 -1.337277e-001 -1.039395e+001 -3.149792e+000 2.266744e+000 -7.810784e-001 -7.497430e+000 6.414639e+001 -1.726863e-001 8.869504e-002 -1.017098e+000 6.449630e-001 1.188152e+000 3.010599e-003 1.965704e-001 7.403485e-001 1.183609e+000 3.587343e-001 2.540901e-001 -1.124347e-001 -9.772558e-001 -1.628577e-001 -1.131589e-001 -5.066688e-002 -2.074022e-001 4.618426e-002 1.024214e-001 2.066375e-002 2.359996e-003 -6.656428e-002 2.231954e-002 1.350302e-001 1.862528e-001 1.468996e-001
<VARIANCE> 39
 8.075806e+000 5.627856e+000 2.923333e+001 2.283892e+001 8.578154e+001 2.302652e+001 1.412162e+001 2.569232e+001 4.474798e+001 2.742789e+001 2.241143e+001 1.622947e+001 1.713203e+001 6.536496e-001 4.139181e-001 9.328488e-001 1.331284e+000 2.453341e+000 1.738662e+000 1.854066e+000 1.266714e+000 1.198371e+000 2.318645e+000 2.385858e+000 2.197865e+000 4.365373e-001 3.887749e-002 4.497486e-002 2.274095e-001 1.702227e-001 3.064362e-001 2.369543e-001 1.764141e-001 1.861348e-001 1.703339e-001 4.165275e-001 3.068721e-001 3.451338e-001 1.557585e-002
<GCONST> 8.970128e+001
<TRANSP> 6
 0.000000e+000 1.000000e+000 0.000000e+000 0.000000e+000 0.000000e+000 0.000000e+000
 0.000000e+000 8.095397e-001 1.714140e-001 1.904635e-002 0.000000e+000 0.000000e+000
 0.000000e+000 0.000000e+000 9.034939e-001 9.650612e-002 0.000000e+000 0.000000e+000
 0.000000e+000 0.000000e+000 0.000000e+000 8.554769e-001 1.445231e-001 0.000000e+000
 0.000000e+000 0.000000e+000 0.000000e+000 0.000000e+000 8.438580e-001 1.561420e-001
 0.000000e+000 0.000000e+000 0.000000e+000 0.000000e+000 0.000000e+000 0.000000e+000
<ENDHMM>
~h "sil"
<BEGINHMM>
<NUMSTATES> 6
<STATE> 2
<MEAN> 39
 -1.427409e+001 -5.508173e+000 -2.923324e-003 -6.210589e+000 3.255805e+000 -8.574761e-001 6.986988e-001 3.087267e+000 3.848511e-001 -1.216707e+000 2.850498e+000 -1.660046e+000 5.143848e+001 -6.200215e-003 -8.814872e-003 -7.847890e-003 -2.886396e-003 7.572120e-003 1.121777e-002 -3.915065e-003 -1.899727e-003 -1.320780e-002 -1.644176e-002 -8.524205e-003 2.425801e-004 1.910996e-002 3.438598e-004 -6.633460e-004 1.131277e-004 1.708256e-003 -3.791089e-003 2.788504e-003 6.466464e-003 1.073803e-003 3.318480e-005 -2.133072e-003 2.680941e-003 5.093809e-003 -1.685286e-003
<VARIANCE> 39
 3.671049e+000 3.747988e+000 7.429043e+000 1.418614e+001 1.030217e+001 1.251590e+001 1.328335e+001 1.567939e+001 1.608937e+001 1.499468e+001 1.285406e+001 1.319493e+001 1.022022e+001 2.619541e-001 2.618779e-001 4.592396e-001 8.322059e-001 8.852410e-001 1.317760e+000 1.195713e+000 1.498945e+000 1.576497e+000 1.338975e+000 1.225953e+000 1.142184e+000 1.522767e-001 4.838350e-002 5.005293e-002 8.421191e-002 1.562882e-001 1.728653e-001 2.820400e-001 2.442771e-001 3.100709e-001 3.204441e-001 2.596264e-001 2.394114e-001 2.344099e-001 2.254583e-002
<GCONST> 7.328232e+001
<STATE> 3
<MEAN> 39
 -1.432092e+001 -6.127791e+000 -1.268554e+000 -6.584325e+000 1.655452e+000 -2.321918e+000 -1.176798e-001 1.506960e+000 -5.630823e-001 -2.208049e+000 1.810380e+000 -2.649575e+000 5.167111e+001 4.770272e-003 2.933212e-003 -6.647168e-004 4.577844e-003 1.739495e-003 -2.347177e-003 4.883227e-005 2.878238e-004 1.149229e-002 8.902936e-003 5.107617e-003 5.747726e-003 2.011696e-003 7.845905e-004 2.430090e-003 4.971948e-003 9.338821e-004 5.335907e-003 6.068779e-003 3.830366e-004 -1.463824e-004 3.968024e-004 3.806389e-003 3.744278e-003 -3.520248e-003 7.370911e-004
<VARIANCE> 39
 1.432644e+000 2.089250e+000 3.704817e+000 6.646592e+000 7.577113e+000 8.632821e+000 1.020994e+001 1.117406e+001 1.283707e+001 1.241684e+001 1.095242e+001 1.144603e+001 3.902310e-001 1.443396e-001 2.434958e-001 3.895867e-001 6.853921e-001 8.429314e-001 9.683661e-001 1.152669e+000 1.241018e+000 1.399454e+000 1.417918e+000 1.306053e+000 1.276169e+000 3.538132e-002 2.990721e-002 5.151397e-002 7.916781e-002 1.385035e-001 1.723929e-001 2.016496e-001 2.386917e-001 2.568302e-001 2.859330e-001 2.962788e-001 2.716942e-001 2.614424e-001 6.969990e-003
<GCONST> 5.997849e+001
<STATE> 4
<MEAN> 39
 -1.352824e+001 -5.124213e+000 1.325172e-001 -4.907627e+000 3.445686e+000 -2.273161e-001 1.641589e+000 3.196276e+000 9.034498e-001 -1.266060e+000 2.624729e+000 -1.753039e+000 5.190760e+001 -2.352028e-003 -8.782570e-004 -1.426139e-003 1.103704e-003 5.581762e-003 -3.190913e-003 3.489798e-003 6.360154e-003 -6.564093e-003 -8.132874e-003 -1.423738e-002 -1.396307e-002 9.439446e-004 -1.365796e-003 -3.581358e-003 -6.970808e-003 -6.253473e-003 -1.031649e-002 -6.911694e-003 -5.410204e-003 -5.995755e-003 -2.799180e-003 -5.031651e-003 -3.761200e-003 -2.812001e-003 -1.028023e-003
<VARIANCE> 39
 1.143005e+000 2.094691e+000 3.439680e+000 6.127624e+000 7.268772e+000 8.111732e+000 1.092613e+001 1.120985e+001 1.284980e+001 1.359741e+001 1.177996e+001 1.190384e+001 2.656980e-001 1.115459e-001 2.198548e-001 3.578312e-001 6.419598e-001 8.097571e-001 9.029360e-001 1.241039e+000 1.247200e+000 1.331174e+000 1.375486e+000 1.192244e+000 1.217595e+000 2.765758e-002 2.391650e-002 4.514844e-002 7.023588e-002 1.351754e-001 1.689773e-001 1.857397e-001 2.553059e-001 2.495180e-001 2.734397e-001 2.831537e-001 2.539687e-001 2.585452e-001 5.702428e-003
<GCONST> 5.744730e+001
<STATE> 5
<MEAN> 39
 -1.415880e+001 -6.272151e+000 -1.425632e+000 -6.463190e+000 1.381400e+000 -2.090989e+000 5.073269e-002 1.251316e+000 -3.791994e-001 -2.270144e+000 1.391883e+000 -2.473957e+000 5.160481e+001 -1.271239e-003 -2.292856e-003 -2.026833e-003 -4.664073e-003 -6.660457e-003 2.377520e-004 -5.685667e-003 -7.689730e-003 -6.248791e-004 -7.993380e-004 -5.324009e-003 -8.139033e-004 -1.287071e-003 -5.352236e-004 3.346374e-004 -5.305421e-005 -9.186647e-004 2.211892e-003 2.216799e-003 5.038297e-004 1.590005e-003 1.646105e-003 5.002648e-004 -2.042125e-003 -2.519047e-004 -4.873926e-005
<VARIANCE> 39
 8.367834e-001 1.950048e+000 3.379933e+000 4.933733e+000 6.650434e+000 8.221057e+000 9.664132e+000 1.063194e+001 1.162063e+001 1.215929e+001 1.101503e+001 9.758956e+000 2.263910e-001 9.563426e-002 2.153466e-001 3.779614e-001 5.473955e-001 7.539976e-001 9.326239e-001 1.155718e+000 1.198427e+000 1.285311e+000 1.351095e+000 1.220878e+000 1.043889e+000 2.461420e-002 2.009322e-002 4.419934e-002 7.817241e-002 1.126857e-001 1.568928e-001 1.963028e-001 2.446159e-001 2.428236e-001 2.605167e-001 2.729243e-001 2.526182e-001 2.155940e-001 5.036084e-003
<GCONST> 5.445546e+001
<TRANSP> 6
 0.000000e+000 5.001608e-001 4.998392e-001 0.000000e+000 0.000000e+000 0.000000e+000
 0.000000e+000 9.935862e-001 5.141455e-003 1.272319e-003 0.000000e+000 0.000000e+000
 0.000000e+000 0.000000e+000 9.934757e-001 5.814193e-003 7.101023e-004 0.000000e+000
 0.000000e+000 0.000000e+000 0.000000e+000 9.922295e-001 7.770551e-003 0.000000e+000
 0.000000e+000 0.000000e+000 0.000000e+000 0.000000e+000 9.963474e-001 3.652595e-003
 0.000000e+000 0.000000e+000 0.000000e+000 0.000000e+000 0.000000e+000 0.000000e+000
<ENDHMM>
