~o
<STREAMINFO> 1 39
<VECSIZE> 39<NULLD><MFCC_D_A_0><DIAGC>
~h "bei"
<BEGINHMM>
<NUMSTATES> 6
<STATE> 2
<MEAN> 39
 -4.873424e+000 -1.247251e+001 -1.373488e+000 -1.322708e+001 -2.043999e+001 -1.535010e+001 4.157342e+000 -1.634877e+000 -9.149408e-001 -1.721481e+000 1.442906e+000 -2.128107e+000 7.666930e+001 -6.180555e-001 -2.752589e-001 2.426042e-001 -6.405684e-001 -1.256989e+000 -1.310458e-001 1.924775e+000 5.590522e-001 -7.555329e-001 2.409589e-001 6.124306e-001 -2.073194e-001 1.838933e+000 -8.746739e-002 2.298855e-001 1.851058e-001 -1.394225e-002 1.396057e-001 2.473818e-001 1.212651e-002 -3.346916e-001 -2.136559e-002 -4.776429e-002 -1.207982e-001 -1.357480e-001 -3.822304e-001
<VARIANCE> 39
 1.207907e+001 1.181719e+001 1.710210e+001 2.688084e+001 4.741673e+001 2.690940e+001 4.679237e+001 3.181119e+001 3.342893e+001 3.443652e+001 1.810916e+001 4.403181e+001 8.245992e+001 1.742147e+000 1.363590e+000 1.614875e+000 1.454222e+000 2.226652e+000 3.025564e+000 2.796928e+000 2.279386e+000 3.654792e+000 4.167356e+000 1.315459e+000 4.249743e+000 3.951230e+000 2.319642e-001 1.587941e-001 1.953842e-001 1.967630e-001 2.745436e-001 4.129942e-001 6.259202e-001 4.771658e-001 6.421338e-001 4.968318e-001 1.840413e-001 4.422867e-001 4.029249e-001
<GCONST> 1.121603e+002
<STATE> 3
<MEAN> 39
 -7.633021e+000 -1.085073e+001 4.337171e+000 -1.638716e+001 -2.651493e+001 -1.582996e+001 1.029517e+001 -6.380242e+000 -3.138725e+000 1.589399e+000 5.140813e+000 -2.979148e+000 7.790942e+001 1.417461e-002 5.990907e-001 8.598314e-001 -1.992478e-001 -3.115502e-001 -1.746405e-001 -6.776214e-001 -1.170089e+000 -4.080821e-001 6.106352e-001 3.473036e-001 5.555755e-001 -6.370481e-001 7.143059e-002 9.896689e-002 3.929574e-002 6.572525e-002 7.491814e-002 4.611946e-002 -2.350118e-001 -6.644413e-003 -1.221862e-001 -1.184629e-001 -5.015449e-002 8.422804e-002 -1.014126e-001
<VARIANCE> 39
 2.367771e+000 1.102567e+001 1.549349e+001 3.642108e+001 9.742631e+000 2.251684e+001 5.716871e+001 3.101789e+001 5.168264e+001 7.136875e+001 2.316253e+001 2.630720e+001 5.107951e+001 1.843750e-001 7.135326e-001 7.962821e-001 8.577239e-001 1.140172e+000 1.786719e+000 1.478895e+000 1.324918e+000 3.649439e+000 1.906713e+000 1.379489e+000 1.289208e+000 1.631724e-001 3.772119e-002 1.056225e-001 1.522215e-001 1.074768e-001 2.341682e-001 4.727119e-001 2.357239e-001 2.257393e-001 6.131532e-001 3.614359e-001 2.499996e-001 2.441778e-001 2.133464e-002
<GCONST> 8.945925e+001
<STATE> 4
<MEAN> 39
 -6.146998e+000 -4.512951e+000 1.105842e+001 -1.268397e+001 -1.485855e+001 -7.614247e+000 -2.858289e-001 -1.046127e+001 -1.227513e+001 1.503244e+000 2.209128e-001 8.923370e-001 7.147075e+001 2.027368e-001 6.841657e-001 3.210418e-001 7.570217e-001 1.464197e-001 6.047776e-001 -2.625135e-001 -1.054074e-001 -2.720111e-001 -7.740013e-001 -7.614428e-001 -8.269815e-001 -9.219906e-001 1.963843e-002 -1.062567e-001 -2.417071e-001 1.942087e-001 9.570674e-002 -1.193241e-001 1.101964e-001 2.333440e-001 4.246541e-001 1.188092e-001 -4.289307e-002 -1.222758e-001 -1.038724e-001
<VARIANCE> 39
 7.965470e+000 1.013961e+001 4.360030e+000 8.701888e+001 4.295332e+002 1.131601e+002 4.044174e+001 7.642683e+001 4.302432e+001 3.667239e+001 5.208409e+001 3.224632e+001 2.503061e+001 5.440626e-001 5.291114e-001 7.661480e-001 8.281789e-001 2.346520e+000 1.586235e+000 1.032851e+000 1.727261e+000 2.890136e+000 2.087974e+000 1.590491e+000 2.222976e+000 6.997913e-001 5.874357e-002 7.086517e-002 9.413560e-002 1.438268e-001 3.300808e-001 2.636631e-001 2.178804e-001 2.167211e-001 2.836379e-001 2.284156e-001 2.785173e-001 5.034550e-001 3.710296e-002
<GCONST> 9.846824e+001
<STATE> 5
<MEAN> 39
 -3.565128e+000 1.934817e-001 4.946229e+000 -1.006877e+001 -2.495092e+001 -1.371218e+001 -1.337277e-001 -1.039395e+001 -3.149792e+000 2.266744e+000 -7.810784e-001 -7.497430e+000 6.414639e+001 -1.726863e-001 8.869504e-002 -1.017098e+000 6.449630e-001 1.188152e+000 3.010599e-003 1.965704e-001 7.403485e-001 1.183609e+000 3.587343e-001 2.540901e-001 -1.124347e-001 -9.772558e-001 -1.628577e-001 -1.131589e-001 -5.066688e-002 -2.074022e-001 4.618426e-002 1.024214e-001 2.066375e-002 2.359996e-003 -6.656428e-002 2.231954e-002 1.350302e-001 1.862528e-001 1.468996e-001
<VARIANCE> 39
 8.075806e+000 5.627856e+000 2.923333e+001 2.283892e+001 8.578154e+001 2.302652e+001 1.412162e+001 2.569232e+001 4.474798e+001 2.742789e+001 2.241143e+001 1.622947e+001 1.713203e+001 6.536496e-001 4.139181e-001 9.328488e-001 1.331284e+000 2.453341e+000 1.738662e+000 1.854066e+000 1.266714e+000 1.198371e+000 2.318645e+000 2.385858e+000 2.197865e+000 4.365373e-001 3.887749e-002 4.497486e-002 2.274095e-001 1.702227e-001 3.064362e-001 2.369543e-001 1.764141e-001 1.861348e-001 1.703339e-001 4.165275e-001 3.068721e-001 3.451338e-001 1.557585e-002
<GCONST> 8.970128e+001
<TRANSP> 6
 0.000000e+000 1.000000e+000 0.000000e+000 0.000000e+000 0.000000e+000 0.000000e+000
 0.000000e+000 8.095397e-001 1.714140e-001 1.904635e-002 0.000000e+000 0.000000e+000
 0.000000e+000 0.000000e+000 9.034939e-001 9.650612e-002 0.000000e+000 0.000000e+000
 0.000000e+000 0.000000e+000 0.000000e+000 8.554769e-001 1.445231e-001 0.000000e+000
 0.000000e+000 0.000000e+000 0.000000e+000 0.000000e+000 8.438580e-001 1.561420e-001
 0.000000e+000 0.000000e+000 0.000000e+000 0.000000e+000 0.000000e+000 0.000000e+000
<ENDHMM>
