~o
<STREAMINFO> 1 39
<VECSIZE> 39<NULLD><MFCC_D_A_0><DIAGC>
~h "bin"
<BEGINHMM>
<NUMSTATES> 6
<STATE> 2
<MEAN> 39
 -5.375404e+000 -1.206931e+001 2.048721e+000 -1.215503e+001 -2.025800e+001 -1.861724e+001 -1.006869e+000 -9.497787e+000 -4.552496e+000 6.772838e-001 -9.027130e-001 -3.440333e+000 7.097003e+001 -1.041061e+000 5.073480e-001 2.394343e+000 -1.881420e+000 -1.541556e+000 1.934398e-001 2.020650e-001 -8.346594e-001 -1.008849e+000 8.702772e-001 4.528745e-002 -3.713733e-002 1.328184e+000 -7.080986e-002 2.227535e-001 -2.186753e-001 -1.205327e-001 3.966230e-001 3.807356e-001 -7.998057e-002 2.891078e-001 2.046299e-001 4.178333e-002 -1.661922e-001 -1.151637e-001 -1.150264e-001
<VARIANCE> 39
 1.192751e+001 9.342289e+000 1.401804e+002 4.340055e+001 7.044143e+001 6.780225e+001 8.125014e+001 4.985810e+001 8.844101e+001 2.237723e+001 2.837632e+001 1.411477e+001 3.462642e+001 5.279529e-001 1.461852e+000 7.353801e+000 3.562386e+000 3.974853e+000 2.736003e+000 2.987584e+000 3.170094e+000 6.581100e+000 1.668821e+000 3.048083e+000 1.610095e+000 2.206397e+000 1.025340e-001 1.276592e-001 1.288666e+000 3.754463e-001 7.465554e-001 2.321159e-001 2.713808e-001 4.493056e-001 1.045238e+000 3.951190e-001 6.020610e-001 2.770427e-001 2.820411e-001
<GCONST> 1.185696e+002
<STATE> 3
<MEAN> 39
 -1.082385e+001 -5.099217e+000 1.122743e+001 -2.647772e+001 -1.954887e+001 -9.854982e+000 -4.857548e+000 -1.372634e+001 -7.808806e+000 3.535213e+000 -6.024249e+000 -3.065198e+000 7.829262e+001 2.981931e-002 3.754151e-001 -2.360986e-001 -3.800585e-001 8.036398e-001 4.857203e-001 -5.041516e-001 -9.286809e-002 2.280006e-001 -4.565489e-001 -9.548670e-001 5.705492e-001 -2.544783e-001 1.883225e-001 -1.746774e-001 -1.462872e-001 3.806481e-001 4.070795e-002 -1.870394e-001 -8.242789e-002 -3.343816e-003 2.140198e-002 -2.337343e-001 -1.142980e-001 9.899005e-002 -1.713653e-001
<VARIANCE> 39
 3.891713e+000 1.686131e+001 5.433840e+000 8.434643e+001 4.652544e+001 4.299104e+001 9.607732e+001 1.706112e+001 1.950761e+001 1.116071e+001 4.235008e+001 1.640392e+001 4.428080e+001 5.530771e-001 8.500775e-001 3.142112e-001 1.631986e+000 9.021853e-001 1.017020e+000 1.394125e+000 1.660876e+000 1.319079e+000 1.956003e+000 3.151398e+000 1.258868e+000 2.688576e-001 5.201175e-002 5.918563e-002 1.347066e-001 2.231192e-001 1.812848e-001 1.766789e-001 2.734498e-001 3.238482e-001 2.716222e-001 1.997673e-001 3.602701e-001 2.212089e-001 3.249142e-002
<GCONST> 8.902857e+001
<STATE> 4
<MEAN> 39
 -2.054995e+000 -7.088522e+000 6.063110e-001 -1.660577e+001 -1.108832e+001 -8.852191e+000 -1.225047e+001 -1.258710e+001 -9.308631e+000 -1.132627e+001 -1.290107e+001 3.338621e-001 7.198618e+001 4.850679e-001 1.577821e-001 -7.736866e-001 1.251033e+000 1.082862e-001 -4.244350e-001 1.129019e-001 -1.256879e-001 -4.041479e-001 -1.096884e+000 -7.623982e-002 -2.257905e-001 -9.816168e-001 -1.136360e-001 1.091390e-001 6.708375e-002 -1.462817e-001 -1.107851e-001 -9.219263e-003 7.888547e-002 -7.969926e-002 3.379604e-002 1.515454e-001 2.251723e-001 -1.219630e-001 3.300401e-003
<VARIANCE> 39
 1.341268e+001 1.021767e+001 3.219398e+001 4.995010e+001 3.047267e+001 2.854497e+001 5.510886e+001 2.947709e+001 1.963146e+001 4.955233e+001 3.621865e+001 1.877131e+001 2.161927e+001 1.033183e+000 1.385514e+000 1.648645e+000 3.229413e+000 1.104308e+000 2.183176e+000 2.603821e+000 1.742285e+000 1.864472e+000 1.850326e+000 2.755054e+000 1.334955e+000 1.705165e-001 9.609205e-002 1.239204e-001 2.008188e-001 5.008914e-001 2.285401e-001 4.278285e-001 4.788802e-001 3.630741e-001 3.790707e-001 3.796405e-001 5.508010e-001 3.314733e-001 2.690530e-002
<GCONST> 1.017557e+002
<STATE> 5
<MEAN> 39
 -5.401825e+000 -2.898716e+000 3.482841e+000 -9.274980e+000 -8.619594e+000 -9.504636e+000 -6.006595e+000 -1.238501e+001 -8.687885e+000 -8.078814e+000 -1.105383e+001 -3.180627e+000 6.254633e+001 -3.255709e-001 2.346351e-001 -3.430650e-002 3.623776e-001 4.114828e-001 3.428940e-001 -1.357678e-001 4.388348e-001 6.667765e-001 4.052984e-001 3.732550e-001 -5.774229e-001 -7.121170e-001 -3.253730e-002 -8.229233e-002 4.382809e-002 2.484024e-002 1.146575e-001 1.206224e-001 5.536043e-002 1.103653e-001 -6.262543e-002 8.855148e-002 -2.983080e-002 1.103478e-002 4.035872e-002
<VARIANCE> 39
 4.627602e+000 1.375599e+001 3.320389e+001 2.064950e+001 1.631607e+002 7.729764e+001 6.541074e+001 5.254128e+001 3.393291e+001 7.650259e+001 2.080725e+001 2.457406e+001 1.177452e+001 3.181548e-001 4.983728e-001 7.166963e-001 6.417683e-001 1.364957e+000 2.335558e+000 1.769575e+000 1.188875e+000 1.738144e+000 1.554748e+000 1.753574e+000 1.069536e+000 1.523328e-001 3.191765e-002 8.601581e-002 1.420217e-001 1.112518e-001 1.726636e-001 3.676135e-001 2.690136e-001 2.319706e-001 2.118972e-001 2.209374e-001 2.783960e-001 2.188765e-001 1.474261e-002
<GCONST> 8.988328e+001
<TRANSP> 6
 0.000000e+000 1.000000e+000 0.000000e+000 0.000000e+000 0.000000e+000 0.000000e+000
 0.000000e+000 8.196464e-001 1.803536e-001 0.000000e+000 0.000000e+000 0.000000e+000
 0.000000e+000 0.000000e+000 8.960581e-001 1.039419e-001 0.000000e+000 0.000000e+000
 0.000000e+000 0.000000e+000 0.000000e+000 8.804284e-001 1.195716e-001 0.000000e+000
 0.000000e+000 0.000000e+000 0.000000e+000 0.000000e+000 8.776251e-001 1.223749e-001
 0.000000e+000 0.000000e+000 0.000000e+000 0.000000e+000 0.000000e+000 0.000000e+000
<ENDHMM>
