~o
<STREAMINFO> 1 39
<VECSIZE> 39<NULLD><MFCC_D_A_0><DIAGC>
~h "bei_3"
<BEGINHMM>
<NUMSTATES> 6
<STATE> 2
<MEAN> 39
 -1.563836e+000 -1.176136e+001 -1.820753e+000 -7.627429e+000 -9.507050e+000 -1.139927e+001 -3.486285e+000 -4.668280e+000 -2.130095e+000 -4.772520e+000 7.033814e-001 -1.679424e+000 7.313455e+001 2.887072e-003 -1.236281e+000 8.713924e-001 -8.443280e-001 -1.231945e+000 -8.691177e-001 4.686998e-001 2.405323e-001 -6.806259e-001 -7.245036e-001 5.358143e-001 -1.697777e-001 2.392220e+000 -2.527551e-001 3.227865e-001 1.383798e-001 -6.074621e-002 6.254946e-002 3.213917e-001 2.794582e-001 -1.263706e-001 -1.653310e-001 -5.763717e-002 1.029882e-001 -7.639863e-002 -4.604314e-001
<VARIANCE> 39
 6.186264e+001 4.055928e+001 4.276373e+001 4.262413e+001 1.185691e+002 5.567059e+001 6.680938e+001 3.652470e+001 4.750432e+001 5.948867e+001 2.954839e+001 2.957141e+001 7.656041e+001 2.290651e+000 2.714021e+000 2.720363e+000 2.045848e+000 3.003189e+000 4.772338e+000 4.907436e+000 2.698411e+000 3.067470e+000 3.486431e+000 4.414150e+000 4.477688e+000 4.711856e+000 2.401411e-001 4.128311e-001 2.112131e-001 2.381118e-001 2.677631e-001 5.278053e-001 5.547115e-001 4.264456e-001 3.925532e-001 3.888723e-001 3.302073e-001 5.567990e-001 6.176034e-001
<GCONST> 1.256043e+002
<STATE> 3
<MEAN> 39
 -7.229377e+000 -8.508811e+000 5.351795e+000 -1.499902e+001 -2.014273e+001 -1.470316e+001 4.592452e+000 -7.459994e+000 -4.006691e+000 1.087152e+000 2.414029e+000 -7.563122e-001 7.640937e+001 -4.172606e-002 6.714216e-001 8.247038e-001 -2.636247e-002 -4.507903e-001 2.774220e-001 -2.948413e-001 -6.768062e-001 -4.754996e-001 3.056521e-001 1.273244e-001 6.146937e-002 -5.020283e-001 6.098903e-002 4.848108e-002 -3.668518e-002 8.277790e-002 5.728941e-002 1.952090e-002 -1.253418e-001 4.260699e-003 5.106308e-002 -4.145406e-002 -7.919062e-002 -3.935314e-002 -9.097213e-002
<VARIANCE> 39
 3.253797e+000 2.054341e+001 2.861085e+001 3.594268e+001 8.080123e+001 1.897131e+001 6.747751e+001 3.586364e+001 4.165973e+001 5.517199e+001 2.959559e+001 2.508990e+001 3.033887e+001 1.967991e-001 4.811562e-001 5.659020e-001 1.003602e+000 1.448726e+000 1.362972e+000 1.569475e+000 1.427268e+000 2.378412e+000 2.182465e+000 1.377165e+000 1.687067e+000 2.636732e-001 4.148291e-002 8.342782e-002 1.223927e-001 1.363775e-001 2.311108e-001 2.875243e-001 2.329327e-001 2.479566e-001 4.808173e-001 2.987373e-001 2.190628e-001 3.010913e-001 2.667416e-002
<GCONST> 9.181991e+001
<STATE> 4
<MEAN> 39
 9.151753e-001 -7.050558e+000 2.661510e+001 -1.193546e+001 -2.267227e+001 7.761556e-001 -1.076682e+001 -1.544123e+001 -2.219363e+001 -1.518918e+001 4.128167e+000 -1.062171e+001 6.526756e+001 -2.832488e-001 3.508242e-001 -5.292726e-002 2.700032e-001 3.216923e-001 3.296695e-001 1.761472e-001 -2.936978e-001 -4.093414e-003 2.205256e-001 -5.400851e-001 -2.692386e-001 -7.465808e-001 1.810934e-002 -1.239397e-002 -9.172708e-002 6.723047e-002 9.460918e-002 -3.648829e-002 1.030567e-002 2.336467e-002 9.428091e-002 6.422345e-002 -2.850172e-002 7.175917e-002 -2.902688e-002
<VARIANCE> 39
 2.639234e+001 4.654103e+001 1.232542e+002 4.750679e+001 1.635491e+002 1.205280e+002 8.753406e+001 5.595268e+001 9.537963e+001 8.068046e+001 1.658334e+002 8.395664e+001 6.423302e+001 7.417673e-001 2.009089e+000 4.099492e+000 2.461357e+000 4.640726e+000 3.234223e+000 2.761389e+000 2.202259e+000 4.035137e+000 3.722974e+000 4.377863e+000 2.892358e+000 1.328938e+000 1.127990e-001 2.900991e-001 4.262455e-001 3.858111e-001 5.423955e-001 4.994451e-001 4.740379e-001 4.134800e-001 6.723276e-001 6.348016e-001 7.352058e-001 4.581624e-001 1.339303e-001
<GCONST> 1.291499e+002
<STATE> 5
<MEAN> 39
 -6.038176e+000 4.522455e-001 7.145209e+000 -6.755394e+000 -8.681042e+000 -4.739536e+000 -2.880303e+000 -8.993561e+000 -5.803853e+000 3.026945e-001 -9.886824e-001 -3.435882e+000 6.607780e+001 -1.609238e-001 4.132476e-002 -8.635741e-001 5.025756e-001 9.249148e-001 2.398451e-001 3.398573e-001 6.782497e-001 8.446881e-001 2.010906e-002 1.858270e-001 -2.474385e-001 -6.895961e-001 -7.551800e-002 -9.468079e-002 -2.813856e-002 -1.127161e-001 -8.547843e-003 3.363537e-003 3.385481e-002 3.096288e-002 7.008966e-003 4.890934e-002 9.357217e-002 8.626275e-002 4.974457e-002
<VARIANCE> 39
 1.022538e+001 1.863396e+001 3.619376e+001 2.774669e+001 2.453556e+002 7.064791e+001 2.222779e+001 3.969676e+001 5.038268e+001 2.829216e+001 2.358529e+001 3.509319e+001 2.682054e+001 3.937033e-001 4.563346e-001 1.209088e+000 9.557790e-001 1.587099e+000 1.246658e+000 1.400665e+000 1.116361e+000 1.097008e+000 1.735654e+000 1.491011e+000 1.556804e+000 2.635193e-001 4.172247e-002 4.804683e-002 1.911096e-001 1.609402e-001 1.932226e-001 2.105765e-001 1.774207e-001 1.712265e-001 1.853832e-001 2.659468e-001 1.976019e-001 2.576957e-001 2.303424e-002
<GCONST> 9.121413e+001
<TRANSP> 6
 0.000000e+000 1.000000e+000 0.000000e+000 0.000000e+000 0.000000e+000 0.000000e+000
 0.000000e+000 8.156495e-001 1.290454e-001 5.530515e-002 0.000000e+000 0.000000e+000
 0.000000e+000 0.000000e+000 9.400320e-001 5.996802e-002 0.000000e+000 0.000000e+000
 0.000000e+000 0.000000e+000 0.000000e+000 9.201459e-001 7.985410e-002 0.000000e+000
 0.000000e+000 0.000000e+000 0.000000e+000 0.000000e+000 8.820730e-001 1.179269e-001
 0.000000e+000 0.000000e+000 0.000000e+000 0.000000e+000 0.000000e+000 0.000000e+000
<ENDHMM>
~h "bin_1"
<BEGINHMM>
<NUMSTATES> 6
<STATE> 2
<MEAN> 39
 -2.484816e+000 -4.862901e+000 1.083591e+001 -9.150901e+000 -1.376212e+001 -4.526535e+000 -4.873014e+000 -1.306691e+001 -8.133379e+000 -1.232214e+001 7.449005e+000 -6.702869e+000 7.221527e+001 -2.806045e-001 5.308684e-001 7.267914e-001 -1.652390e+000 -1.856099e-001 6.301590e-001 -2.061751e-001 -1.234516e+000 -1.144683e+000 -3.652474e-001 3.168074e-001 -9.328639e-001 1.390845e+000 -5.433148e-002 1.180656e-001 -1.718048e-001 -5.711675e-002 3.128580e-001 2.767061e-001 1.554899e-001 3.267470e-001 1.565287e-001 3.751981e-001 -2.360087e-001 -5.316448e-002 -2.703786e-001
<VARIANCE> 39
 2.611662e+001 4.353449e+001 2.384750e+002 4.591131e+001 7.052035e+001 1.498607e+002 3.443810e+001 5.351321e+001 8.434727e+001 1.913368e+002 1.121007e+002 6.064877e+001 4.326734e+001 9.790815e-001 1.569819e+000 1.151913e+001 2.257205e+000 4.759627e+000 3.562789e+000 3.367511e+000 3.114487e+000 6.319101e+000 1.018345e+001 5.491191e+000 4.483842e+000 2.632127e+000 8.278268e-002 2.121554e-001 1.176555e+000 2.823350e-001 5.381871e-001 3.478331e-001 4.187171e-001 5.934383e-001 9.715706e-001 1.205952e+000 6.582127e-001 5.743710e-001 2.883731e-001
<GCONST> 1.340148e+002
<STATE> 3
<MEAN> 39
 -9.449702e+000 -5.249187e+000 1.054119e+001 -2.353035e+001 -1.836902e+001 -1.034767e+001 -4.025183e+000 -1.397627e+001 -7.818114e+000 1.310254e+000 -6.509667e+000 -3.152544e+000 7.607808e+001 1.703857e-001 2.091399e-001 -2.170893e-001 -9.921547e-002 6.751107e-001 4.079083e-001 -4.874733e-001 6.131058e-002 2.338533e-001 -2.662256e-001 -9.517850e-001 2.458335e-001 -3.787143e-001 1.542296e-001 -1.339846e-001 -1.804326e-001 3.359374e-001 7.827228e-003 -1.031544e-001 -1.311516e-002 4.795722e-002 1.468935e-002 -1.182505e-001 2.309004e-002 -2.319751e-002 -1.712324e-001
<VARIANCE> 39
 1.139580e+001 2.101127e+001 6.204651e+000 9.254549e+001 6.379380e+001 8.786275e+001 1.124847e+002 2.303958e+001 1.990044e+001 3.353737e+001 6.793044e+001 3.816413e+001 5.407026e+001 6.457983e-001 9.721961e-001 7.471961e-001 3.247128e+000 1.051350e+000 1.762939e+000 1.672576e+000 1.529739e+000 1.471474e+000 2.273664e+000 2.954940e+000 1.408922e+000 4.304406e-001 7.067689e-002 6.700333e-002 1.999569e-001 2.146114e-001 2.308422e-001 2.108031e-001 3.552179e-001 3.112100e-001 2.822257e-001 3.245676e-001 4.876725e-001 3.409434e-001 3.522757e-002
<GCONST> 1.008657e+002
<STATE> 4
<MEAN> 39
 3.341925e+000 -1.377130e+000 9.811619e+000 -1.096806e+001 -3.293771e+000 9.722450e+000 -3.129221e+000 -1.356694e+001 -8.672476e+000 -8.246300e+000 -5.997780e+000 -8.521096e+000 6.279700e+001 7.328610e-003 1.951153e-001 -4.525633e-001 9.628733e-001 2.640883e-001 -7.452509e-001 3.603076e-001 4.936149e-001 -1.829394e-001 -2.787190e-002 -4.460475e-001 1.034015e+000 -1.373761e+000 -1.049533e-001 7.212372e-002 7.793501e-003 -9.615087e-002 -5.141645e-002 -9.447455e-002 -1.105227e-002 -3.596240e-002 -1.425060e-003 -8.037116e-002 1.837277e-001 8.176117e-002 4.588649e-002
<VARIANCE> 39
 3.984808e+001 2.388227e+002 6.408904e+001 8.789769e+001 5.779333e+001 1.942455e+002 6.959061e+001 5.739402e+001 3.841809e+001 4.966152e+001 5.989047e+001 1.390154e+002 1.113903e+002 1.791891e+000 5.675276e+000 2.777889e+000 4.048981e+000 3.559394e+000 4.362291e+000 4.558674e+000 2.893128e+000 3.515971e+000 5.101126e+000 4.576105e+000 2.384874e+000 1.340162e+000 1.364930e-001 7.881940e-001 3.630064e-001 7.306709e-001 6.390415e-001 6.826008e-001 7.240995e-001 4.051916e-001 7.082081e-001 7.889104e-001 3.914804e-001 3.779070e-001 1.295070e-001
<GCONST> 1.338684e+002
<STATE> 5
<MEAN> 39
 -4.748293e+000 5.726509e-003 2.117348e+000 -6.040748e+000 -2.594890e+000 -4.534746e+000 -6.994179e+000 -1.207983e+001 -1.111787e+001 -1.130725e+001 -9.117401e+000 -6.650321e+000 6.525383e+001 -1.458215e-001 1.465354e-001 -2.923623e-001 3.543779e-001 1.347926e-001 1.361640e-001 9.359695e-002 1.149879e-001 2.628679e-001 -1.533246e-002 1.402156e-001 -2.376461e-001 -4.219567e-001 -4.908467e-002 -3.818787e-002 6.604682e-003 -2.237517e-003 -1.885859e-003 2.814060e-002 -1.247987e-002 2.001379e-002 3.915294e-002 6.552107e-002 -6.925172e-003 4.119213e-002 1.332047e-002
<VARIANCE> 39
 9.446674e+000 2.731088e+001 2.677194e+001 3.835774e+001 8.890273e+001 4.514402e+001 3.581260e+001 2.915723e+001 2.516296e+001 4.379957e+001 2.835459e+001 3.640988e+001 2.124877e+001 3.556883e-001 4.608804e-001 7.528515e-001 8.526413e-001 1.073903e+000 1.569991e+000 1.312934e+000 1.420435e+000 1.603430e+000 1.910435e+000 1.865433e+000 1.399560e+000 1.832428e-001 3.892815e-002 5.548808e-002 1.454503e-001 1.746248e-001 1.739456e-001 2.962181e-001 2.179032e-001 2.483193e-001 2.603860e-001 2.380492e-001 2.592297e-001 2.257762e-001 1.300965e-002
<GCONST> 9.003569e+001
<TRANSP> 6
 0.000000e+000 9.058076e-001 9.419242e-002 0.000000e+000 0.000000e+000 0.000000e+000
 0.000000e+000 8.453296e-001 1.546704e-001 0.000000e+000 0.000000e+000 0.000000e+000
 0.000000e+000 0.000000e+000 8.609529e-001 6.876867e-002 7.027847e-002 0.000000e+000
 0.000000e+000 0.000000e+000 0.000000e+000 9.239516e-001 7.604846e-002 0.000000e+000
 0.000000e+000 0.000000e+000 0.000000e+000 0.000000e+000 9.209390e-001 7.906105e-002
 0.000000e+000 0.000000e+000 0.000000e+000 0.000000e+000 0.000000e+000 0.000000e+000
<ENDHMM>
~h "che_1"
<BEGINHMM>
<NUMSTATES> 6
<STATE> 2
<MEAN> 39
 -1.825672e+001 -1.298959e+001 -4.043430e+000 -1.098252e+001 2.915978e-001 -8.875415e+000 2.384341e+000 -1.282845e+000 3.369884e+000 -8.352502e+000 8.004330e+000 8.905033e-001 7.355039e+001 4.029277e-001 3.640149e-002 4.064487e-001 1.622944e-001 -2.633020e-001 -8.521271e-001 -1.669702e-001 -2.769085e-001 -7.994103e-002 -9.009737e-002 -2.489956e-001 -1.994027e-001 4.057651e-001 4.455432e-001 1.001986e-001 -6.802678e-002 -1.148944e-002 2.664669e-002 9.229921e-002 -2.923044e-001 -1.730078e-001 -2.244903e-001 -2.795921e-002 -3.217353e-001 -1.254828e-001 -1.041165e-001
<VARIANCE> 39
 4.224807e+001 1.308101e+002 3.593904e+001 5.601920e+001 6.831425e+001 1.004159e+002 5.229873e+001 2.693066e+001 4.050027e+001 1.121720e+002 3.124791e+001 3.632604e+001 5.694575e+001 6.230878e+000 2.781562e+000 3.337970e+000 3.640556e+000 3.134428e+000 4.246144e+000 5.188832e+000 3.706108e+000 3.557326e+000 2.592509e+000 4.750257e+000 3.858623e+000 2.703351e+000 2.530158e-001 4.362554e-001 4.304381e-001 4.838854e-001 5.093405e-001 6.499513e-001 5.628415e-001 6.341949e-001 6.362308e-001 4.566742e-001 6.467557e-001 5.669711e-001 2.332196e-001
<GCONST> 1.308999e+002
<STATE> 3
<MEAN> 39
 -1.903661e+000 -1.031322e+001 -6.234194e+000 -1.529267e+001 8.423269e-001 -1.082103e+001 -9.375805e+000 -4.578474e+000 -3.568841e-001 -2.770827e+000 -3.525554e+000 -8.773152e+000 7.614758e+001 9.591540e-001 2.477891e-001 -4.452431e-001 -1.024420e+000 3.202736e-001 6.387530e-001 -7.233601e-001 -3.753702e-001 -5.859669e-001 7.835977e-001 -6.221095e-001 -8.875370e-001 6.179809e-001 -4.180124e-001 -2.461979e-001 -1.086590e-001 8.226552e-002 -2.098004e-002 -2.881445e-002 3.023558e-001 2.618873e-001 1.345694e-001 1.074667e-001 3.370641e-001 3.079708e-001 -2.836734e-002
<VARIANCE> 39
 2.844350e+001 3.613467e+001 7.848890e+001 7.064218e+001 7.729792e+001 4.444943e+001 6.213452e+001 6.197258e+001 4.897092e+001 1.013597e+002 3.417672e+001 5.281073e+001 5.331003e+001 2.980677e+000 1.980888e+000 3.156652e+000 4.456604e+000 5.332492e+000 3.020701e+000 6.927326e+000 4.694892e+000 5.335949e+000 4.411009e+000 4.002653e+000 3.631904e+000 7.043460e-001 2.685992e-001 2.623849e-001 5.390449e-001 8.107653e-001 1.019613e+000 5.173628e-001 1.006124e+000 7.354786e-001 8.404965e-001 8.731561e-001 7.409751e-001 6.585066e-001 1.236702e-001
<GCONST> 1.322429e+002
<STATE> 4
<MEAN> 39
 -5.153014e+000 -4.584198e+000 -5.465216e+000 -1.693645e+001 1.616391e+000 -4.577852e+000 -7.697608e+000 -1.451281e+001 -2.191107e+000 2.492095e+000 -6.935412e+000 -5.682873e+000 7.163857e+001 -8.350532e-002 -1.737979e-001 -2.204496e-001 -6.209232e-002 1.125226e-003 3.880194e-001 4.132795e-001 1.388093e-001 2.732034e-001 1.172891e-001 3.541383e-002 -1.632658e-002 -1.215416e-001 -9.450959e-003 1.373937e-002 7.991856e-003 5.956171e-002 -3.156362e-002 1.275113e-002 7.396547e-002 6.675716e-002 5.600419e-002 -5.208423e-002 5.980848e-002 -4.407160e-003 -7.204772e-002
<VARIANCE> 39
 1.377231e+001 2.071973e+001 3.430611e+001 3.813219e+001 2.491910e+001 1.813411e+001 7.602184e+001 5.466621e+001 3.305645e+001 2.586811e+001 2.037907e+001 3.082385e+001 1.047064e+001 2.038824e-001 2.872054e-001 6.137153e-001 1.346622e+000 8.702202e-001 9.580176e-001 1.317625e+000 1.414319e+000 1.329968e+000 1.176870e+000 1.489156e+000 1.271511e+000 2.764829e-001 3.314001e-002 6.980436e-002 1.047230e-001 1.364841e-001 1.748200e-001 1.621057e-001 2.041202e-001 1.977482e-001 2.080335e-001 2.156861e-001 2.577876e-001 2.243762e-001 1.802636e-002
<GCONST> 8.464832e+001
<STATE> 5
<MEAN> 39
 1.267853e+000 -1.186454e+001 -1.680102e+001 -1.360232e+001 5.832546e+000 -2.876662e+000 -5.801245e+000 -3.557563e+000 -5.063079e+000 -6.216022e+000 -6.573973e+000 -1.144744e+001 6.818929e+001 -2.850854e-001 4.820110e-001 -2.483225e-001 3.856204e-001 -9.329636e-002 1.750981e-001 1.526026e-001 -2.487079e-001 -3.755912e-002 6.882450e-003 -2.188368e-001 -4.271866e-002 -1.233456e+000 -5.173184e-002 4.229015e-002 8.727884e-002 -1.571404e-002 -2.796379e-002 -4.402540e-003 -6.893208e-003 -2.427614e-002 2.102295e-002 2.046112e-002 3.749106e-003 -3.263386e-002 -2.949830e-002
<VARIANCE> 39
 6.132431e+001 2.419737e+001 5.258602e+001 9.991948e+001 9.650418e+001 7.955686e+001 1.210997e+002 4.795142e+001 3.701500e+001 8.798859e+001 2.828052e+001 2.728200e+001 9.976936e+001 1.218982e+000 8.592986e-001 2.394685e+000 1.705298e+000 2.230153e+000 2.451491e+000 4.125087e+000 2.434310e+000 2.987082e+000 3.455359e+000 1.979321e+000 1.850469e+000 7.648827e-001 1.134834e-001 1.228074e-001 2.802439e-001 2.942080e-001 3.975863e-001 3.640104e-001 5.087129e-001 3.894942e-001 4.607991e-001 4.596230e-001 3.308514e-001 3.254679e-001 8.158700e-002
<GCONST> 1.167151e+002
<TRANSP> 6
 0.000000e+000 9.514409e-001 4.855910e-002 0.000000e+000 0.000000e+000 0.000000e+000
 0.000000e+000 9.197813e-001 8.021867e-002 0.000000e+000 0.000000e+000 0.000000e+000
 0.000000e+000 0.000000e+000 8.673825e-001 1.326175e-001 0.000000e+000 0.000000e+000
 0.000000e+000 0.000000e+000 0.000000e+000 8.947631e-001 7.893294e-002 2.630400e-002
 0.000000e+000 0.000000e+000 0.000000e+000 0.000000e+000 9.406914e-001 5.930861e-002
 0.000000e+000 0.000000e+000 0.000000e+000 0.000000e+000 0.000000e+000 0.000000e+000
<ENDHMM>
~h "chong_2"
<BEGINHMM>
<NUMSTATES> 6
<STATE> 2
<MEAN> 39
 -1.404840e+001 -1.517787e+001 -7.296654e+000 -1.282074e+001 -5.439324e-001 -7.812428e+000 -2.303710e+000 -9.775822e+000 4.031801e+000 -7.293196e+000 5.842321e+000 2.140209e+000 7.385892e+001 6.831447e-001 -4.102492e-001 -3.733544e-001 -7.446917e-001 3.653553e-001 -1.094670e-001 -6.378356e-002 5.289718e-002 -2.480279e-001 -1.578927e-001 5.084326e-001 -4.331783e-001 5.305117e-001 4.899177e-001 2.071807e-001 -1.551717e-002 -6.162592e-002 1.781708e-001 6.031421e-001 1.889915e-001 -2.020590e-001 -3.395916e-001 1.534402e-003 -3.319158e-001 -3.094601e-001 -2.593210e-001
<VARIANCE> 39
 4.710390e+001 8.789744e+001 5.129566e+001 5.046342e+001 1.014560e+002 7.978230e+001 2.744622e+001 9.939881e+001 3.652957e+001 7.328873e+001 3.102541e+001 3.115216e+001 6.784035e+001 4.200367e+000 2.603646e+000 4.579760e+000 2.667353e+000 4.912542e+000 1.147204e+001 3.581260e+000 5.984228e+000 4.911432e+000 4.884464e+000 3.161785e+000 3.706382e+000 5.126499e+000 3.836964e-001 6.170582e-001 7.567717e-001 5.415046e-001 6.177387e-001 1.261143e+000 4.820632e-001 9.165402e-001 9.060665e-001 1.011324e+000 4.369466e-001 4.660579e-001 6.067774e-001
<GCONST> 1.374452e+002
<STATE> 3
<MEAN> 39
 -2.946128e+000 -9.591348e+000 -8.909470e+000 -1.887594e+001 -2.812580e+000 2.367673e+000 2.800195e+000 -9.053926e+000 -5.417824e+000 -7.649592e+000 1.373556e+000 -7.140333e+000 7.635274e+001 1.712584e+000 1.425645e+000 1.795341e-001 -6.973401e-001 -8.766403e-001 2.841684e-001 2.380205e-001 2.046809e-001 -9.828559e-001 -2.405342e-001 -8.024287e-001 -6.123981e-001 3.364604e-001 -2.263616e-001 -1.538225e-001 -5.010106e-002 1.625373e-002 -2.284451e-001 -3.405079e-001 -2.240573e-001 1.736120e-001 2.941691e-001 1.999789e-001 1.118804e-001 4.434960e-001 -2.170866e-002
<VARIANCE> 39
 4.488878e+001 5.276851e+001 7.666550e+001 5.346457e+001 6.901943e+001 3.728403e+001 5.788747e+001 5.326838e+001 2.839429e+001 5.368124e+001 2.850181e+001 3.859295e+001 7.828400e+001 3.629973e+000 2.946817e+000 5.390931e+000 7.319463e+000 4.337305e+000 5.207749e+000 8.872890e+000 6.799003e+000 4.207944e+000 5.829911e+000 4.043905e+000 4.251585e+000 4.501647e+000 7.621847e-001 7.345455e-001 8.091316e-001 9.628461e-001 9.609616e-001 7.932177e-001 1.348045e+000 9.219330e-001 5.853581e-001 1.045730e+000 6.567755e-001 5.812241e-001 6.204879e-001
<GCONST> 1.403416e+002
<STATE> 4
<MEAN> 39
 -1.031093e+000 -3.682697e-001 -5.975873e+000 -2.068134e+001 -1.095100e+001 -4.940523e+000 1.961092e-001 -8.896336e+000 -7.402187e+000 -8.068825e+000 -4.011317e+000 -2.097381e+000 7.037263e+001 -6.768472e-002 1.688772e-001 5.612203e-001 7.611127e-001 8.459383e-002 -2.779748e-001 -3.768495e-001 -4.193237e-001 -1.422169e-001 -2.936658e-001 -4.784915e-001 -3.717498e-002 -3.702245e-001 -6.614356e-002 -6.031938e-003 -7.571024e-003 1.171555e-001 9.140682e-002 6.229242e-002 2.527522e-002 -4.654378e-002 -2.817044e-002 -8.167983e-002 5.155767e-003 -1.322540e-001 -4.036719e-002
<VARIANCE> 39
 1.486166e+001 2.845842e+001 4.842605e+001 5.225840e+001 2.963074e+001 5.156213e+001 1.136256e+002 3.947763e+001 3.618333e+001 3.280267e+001 5.146090e+001 3.624089e+001 1.381731e+001 5.158757e-001 9.438436e-001 1.487607e+000 1.794822e+000 1.781810e+000 2.089300e+000 2.189434e+000 2.164423e+000 2.282284e+000 2.460583e+000 2.912075e+000 2.744318e+000 3.599724e-001 1.275535e-001 1.748060e-001 2.403108e-001 2.452449e-001 2.994194e-001 3.450097e-001 3.491293e-001 2.831493e-001 4.239774e-001 5.234806e-001 5.292047e-001 3.466511e-001 5.259541e-002
<GCONST> 1.070868e+002
<STATE> 5
<MEAN> 39
 3.335542e+000 -4.860136e-001 6.318618e+000 -2.279852e+000 6.670820e+000 2.079117e+000 -8.440893e+000 -1.048643e+001 -9.778466e+000 -1.318943e+001 -8.277550e+000 -7.410504e+000 6.351408e+001 -5.898611e-001 2.897230e-001 3.730795e-002 5.461004e-001 1.346255e-001 -1.098525e-001 1.122021e-001 -6.585652e-002 -1.299538e-001 7.579371e-002 8.071194e-002 4.706526e-002 -8.198569e-001 -7.964186e-002 -2.418805e-002 -8.028742e-002 -5.736336e-002 -4.866855e-002 -2.588093e-002 1.226208e-001 1.271497e-001 1.462321e-001 1.101301e-001 1.155128e-001 3.766100e-002 -6.123945e-004
<VARIANCE> 39
 7.595316e+001 5.540141e+001 7.287408e+001 5.619170e+001 8.077859e+001 7.125776e+001 6.382544e+001 9.292859e+001 5.020337e+001 5.469648e+001 3.088428e+001 2.385445e+001 8.139256e+001 8.370693e-001 1.144607e+000 1.420238e+000 2.043567e+000 1.719229e+000 2.242411e+000 3.064923e+000 3.269942e+000 3.466414e+000 2.527938e+000 2.131859e+000 1.546175e+000 5.151055e-001 6.760500e-002 1.525446e-001 1.721108e-001 3.118437e-001 2.433809e-001 3.599133e-001 4.022166e-001 4.069201e-001 6.081063e-001 4.038380e-001 3.279319e-001 3.258205e-001 4.129219e-002
<GCONST> 1.134099e+002
<TRANSP> 6
 0.000000e+000 1.000000e+000 0.000000e+000 0.000000e+000 0.000000e+000 0.000000e+000
 0.000000e+000 8.663939e-001 1.336061e-001 0.000000e+000 0.000000e+000 0.000000e+000
 0.000000e+000 0.000000e+000 8.600847e-001 1.399153e-001 0.000000e+000 0.000000e+000
 0.000000e+000 0.000000e+000 0.000000e+000 9.217219e-001 7.827811e-002 0.000000e+000
 0.000000e+000 0.000000e+000 0.000000e+000 0.000000e+000 9.077761e-001 9.222395e-002
 0.000000e+000 0.000000e+000 0.000000e+000 0.000000e+000 0.000000e+000 0.000000e+000
<ENDHMM>
~h "cong_2"
<BEGINHMM>
<NUMSTATES> 6
<STATE> 2
<MEAN> 39
 -1.652932e+001 -9.833551e+000 -4.959348e+000 -1.252109e+001 2.598709e+000 -7.573435e-001 -9.768390e-001 -3.225749e+000 1.057671e+000 -5.201588e+000 5.821659e+000 2.587330e+000 6.552718e+001 4.249793e-001 -4.351553e-001 -3.525014e-001 -8.372475e-001 4.377187e-001 3.122798e-001 -8.247129e-002 -4.832815e-001 -1.478709e-001 -3.556630e-001 4.724862e-001 -2.321211e-002 1.538726e+000 2.105061e-001 1.213604e-001 -4.646733e-002 -1.704427e-002 -5.123451e-002 7.585959e-002 3.031090e-002 -1.743642e-001 -1.496463e-001 -1.231260e-001 -1.125486e-001 -1.782170e-001 -9.624255e-002
<VARIANCE> 39
 2.323389e+001 1.200298e+002 7.585064e+001 7.913391e+001 4.639181e+001 1.208428e+002 5.335234e+001 6.300561e+001 3.915420e+001 9.681403e+001 5.433298e+001 4.165381e+001 1.447871e+002 2.557265e+000 5.187724e+000 5.235280e+000 2.759025e+000 3.618339e+000 9.906871e+000 3.555697e+000 4.580501e+000 4.783931e+000 6.574715e+000 3.122733e+000 3.842506e+000 5.268487e+000 3.378940e-001 9.494087e-001 7.923482e-001 4.327824e-001 6.884235e-001 1.489590e+000 6.550735e-001 8.405389e-001 9.061534e-001 9.962045e-001 5.486372e-001 6.593800e-001 4.610530e-001
<GCONST> 1.405504e+002
<STATE> 3
<MEAN> 39
 -2.215124e+000 -7.669481e+000 -1.003010e+001 -2.413475e+001 -1.309938e+000 5.240921e+000 3.667812e+000 -1.182259e+001 -5.686450e+000 -1.207067e+001 3.262971e+000 -5.446579e+000 7.710653e+001 1.557375e+000 9.480084e-001 -2.880074e-001 -7.419315e-001 -1.051951e+000 7.181022e-001 4.085902e-001 2.367865e-001 -4.573717e-001 -5.567475e-001 -9.339901e-001 -5.739068e-001 2.120019e-001 -1.951183e-001 -1.660177e-001 3.651487e-002 9.605820e-002 -2.311775e-003 -2.040650e-001 -3.231453e-002 3.159380e-001 2.283871e-001 2.438670e-001 3.629879e-002 1.511190e-001 -1.610715e-002
<VARIANCE> 39
 5.828594e+001 4.996861e+001 6.456474e+001 8.138544e+001 9.056526e+001 3.542862e+001 5.909883e+001 5.754997e+001 3.341125e+001 3.887812e+001 5.757697e+001 3.641815e+001 4.019291e+001 3.422541e+000 3.339305e+000 3.208616e+000 6.984426e+000 3.801485e+000 3.688004e+000 5.287419e+000 6.973870e+000 3.188305e+000 4.033550e+000 3.720710e+000 3.198633e+000 1.921699e+000 5.750847e-001 6.523030e-001 6.416438e-001 8.461013e-001 6.890808e-001 6.415917e-001 8.347902e-001 9.197838e-001 5.158688e-001 7.532488e-001 6.671830e-001 5.202191e-001 2.450801e-001
<GCONST> 1.343338e+002
<STATE> 4
<MEAN> 39
 -1.819585e+000 6.237708e-001 -8.074242e+000 -2.866977e+001 -9.490674e+000 2.231398e+000 3.444963e+000 -4.238476e+000 -4.799157e+000 -8.363774e+000 -5.856444e+000 -2.902497e+000 7.324194e+001 -2.110959e-002 -6.639346e-002 4.301533e-001 5.557995e-001 1.892239e-001 -5.202682e-001 -2.919467e-001 8.161456e-002 -2.787123e-001 -2.379102e-002 -5.408287e-001 -1.669461e-001 -2.481162e-001 -1.059101e-002 1.344532e-003 1.848802e-002 1.258561e-001 3.940418e-002 -2.740765e-002 -3.052299e-002 -6.744096e-002 -8.100087e-002 -6.124258e-002 2.619823e-002 -4.031986e-002 -3.377965e-002
<VARIANCE> 39
 1.692491e+001 2.456438e+001 4.716061e+001 3.906981e+001 5.890354e+001 6.154768e+001 7.015836e+001 4.247689e+001 4.487288e+001 2.923211e+001 3.026476e+001 4.016618e+001 1.883006e+001 1.800129e-001 4.073951e-001 7.039427e-001 1.729902e+000 1.252307e+000 1.360206e+000 1.445233e+000 1.961570e+000 2.053748e+000 1.902819e+000 1.579549e+000 1.368151e+000 2.199643e-001 3.669569e-002 8.100176e-002 1.336702e-001 1.620784e-001 2.712644e-001 2.124362e-001 2.327451e-001 2.457113e-001 3.718855e-001 3.122205e-001 2.993044e-001 2.094479e-001 2.829429e-002
<GCONST> 9.456395e+001
<STATE> 5
<MEAN> 39
 1.101776e+000 -6.248412e-001 -7.926924e-001 -7.010132e+000 6.038740e-001 -1.843734e+000 -6.061586e+000 -6.325425e+000 -1.103568e+001 -1.156723e+001 -6.671996e+000 -6.751407e+000 6.202259e+001 -5.309243e-001 2.562420e-001 1.738354e-001 5.050213e-001 8.098023e-002 -5.492668e-002 1.423490e-001 -9.161350e-002 1.934223e-001 2.016777e-001 3.047784e-001 2.695055e-001 -7.678807e-001 -3.247565e-002 -2.001089e-002 -1.289938e-002 -7.470066e-002 5.047449e-003 5.184747e-002 3.653092e-002 2.580447e-002 4.815884e-002 5.430230e-002 4.123121e-002 4.693871e-002 6.390518e-003
<VARIANCE> 39
 7.671751e+001 6.313747e+001 9.398811e+001 5.095886e+001 4.779235e+001 3.930089e+001 5.506690e+001 7.014642e+001 5.607992e+001 8.962285e+001 5.223269e+001 3.663839e+001 9.037405e+001 5.708624e-001 2.135004e+000 1.619943e+000 1.620880e+000 1.815215e+000 1.809548e+000 2.296256e+000 2.689080e+000 2.510239e+000 2.942736e+000 2.388024e+000 2.059372e+000 6.642912e-001 6.685640e-002 2.592056e-001 2.535342e-001 2.457310e-001 2.866015e-001 3.024035e-001 3.017297e-001 4.097330e-001 4.169731e-001 4.692696e-001 4.107236e-001 4.293740e-001 5.135791e-002
<GCONST> 1.146710e+002
<TRANSP> 6
 0.000000e+000 1.000000e+000 0.000000e+000 0.000000e+000 0.000000e+000 0.000000e+000
 0.000000e+000 9.163373e-001 7.947958e-002 4.183090e-003 0.000000e+000 0.000000e+000
 0.000000e+000 0.000000e+000 8.968142e-001 1.031858e-001 0.000000e+000 0.000000e+000
 0.000000e+000 0.000000e+000 0.000000e+000 9.355723e-001 6.120631e-002 3.221352e-003
 0.000000e+000 0.000000e+000 0.000000e+000 0.000000e+000 9.523075e-001 4.769257e-002
 0.000000e+000 0.000000e+000 0.000000e+000 0.000000e+000 0.000000e+000 0.000000e+000
<ENDHMM>
~h "dao_3"
<BEGINHMM>
<NUMSTATES> 6
<STATE> 2
<MEAN> 39
 -4.346730e+000 -1.270377e+001 -9.978614e+000 -1.553049e+001 2.253685e+000 -5.992020e+000 -3.260475e+000 -4.320520e+000 -2.821830e+000 -7.334199e+000 -5.449764e+000 -6.641328e+000 7.599554e+001 2.584005e-001 -1.852021e+000 -1.672247e+000 -6.847926e-001 1.173790e+000 2.027022e+000 9.060858e-001 -2.835997e-001 7.181896e-002 3.556261e-002 -1.152286e-001 -9.116136e-001 2.142045e+000 2.178223e-002 3.555146e-001 1.171169e-001 9.396960e-002 -2.956004e-002 3.399366e-001 -2.313925e-001 -3.083524e-001 -2.814621e-001 -2.699704e-002 3.371198e-001 1.760563e-001 -6.548713e-001
<VARIANCE> 39
 4.367889e+001 1.012071e+002 8.282497e+001 5.627714e+001 1.178962e+002 7.098611e+001 8.461867e+001 6.166199e+001 5.048032e+001 5.563993e+001 5.505377e+001 8.315471e+001 1.365019e+002 3.527972e+000 5.516128e+000 4.120970e+000 4.566981e+000 6.183715e+000 4.729137e+000 6.989564e+000 7.530903e+000 4.724452e+000 2.996166e+000 7.436184e+000 3.963412e+000 9.625356e+000 4.147044e-001 6.918955e-001 5.496365e-001 7.183210e-001 7.045966e-001 6.403787e-001 1.031601e+000 1.083789e+000 6.493948e-001 3.805001e-001 6.987373e-001 7.693330e-001 1.073975e+000
<GCONST> 1.441272e+002
<STATE> 3
<MEAN> 39
 -4.758038e+000 -1.030849e+001 -1.312243e+001 -1.695228e+001 5.664852e+000 9.252620e+000 6.719876e+000 -1.319008e+001 -5.883242e+000 -2.317482e+000 1.040891e+000 -5.254185e+000 7.354330e+001 1.603325e-001 2.419845e-001 -7.032637e-002 -2.178940e-001 -2.794503e-001 5.062942e-001 1.844888e-001 -2.851864e-002 -1.426113e-001 -2.290777e-001 2.109248e-001 4.056092e-001 -3.579704e-001 7.733547e-003 4.626378e-002 -8.013384e-003 2.983957e-003 -3.800846e-002 -1.314432e-001 -4.565705e-002 6.987154e-002 2.621574e-002 -3.045969e-002 -7.905001e-002 2.378903e-003 -2.860884e-002
<VARIANCE> 39
 5.187881e+000 2.401412e+001 1.684378e+001 1.811737e+001 6.568800e+001 4.100890e+001 6.460690e+001 2.796810e+001 3.203004e+001 2.384600e+001 2.025613e+001 4.539270e+001 2.730546e+001 1.440606e-001 3.188301e-001 5.700069e-001 8.724359e-001 1.054088e+000 1.588133e+000 1.258490e+000 1.303326e+000 9.955257e-001 1.140867e+000 8.048158e-001 1.144189e+000 1.829340e-001 2.761367e-002 5.543933e-002 9.852566e-002 1.584678e-001 1.644945e-001 1.908015e-001 2.242964e-001 2.184958e-001 1.766644e-001 1.984227e-001 1.483207e-001 2.140186e-001 1.888108e-002
<GCONST> 8.207816e+001
<STATE> 4
<MEAN> 39
 5.902578e+000 -1.330424e+001 -2.574257e+001 -2.037415e+001 1.184766e+001 2.379223e+001 5.101050e+000 -6.606510e+000 -1.527582e+001 -1.736883e+001 -4.915268e+000 -2.568699e+000 6.139478e+001 -1.176141e-001 1.848547e-001 -3.815172e-001 2.492747e-001 -4.393272e-002 1.414955e-001 3.549347e-001 -6.282342e-003 -3.696602e-002 -1.536762e-001 -5.293863e-002 2.355118e-001 -8.044885e-001 -6.684646e-002 1.619131e-002 7.949970e-002 3.669753e-002 -1.276945e-002 -1.007817e-001 -2.280122e-002 2.695211e-002 3.124295e-002 2.279640e-003 -3.341484e-002 -4.172136e-002 1.829706e-002
<VARIANCE> 39
 2.835020e+001 2.054202e+001 4.232375e+001 5.296643e+001 3.088209e+001 7.300494e+001 1.192129e+002 2.883101e+001 5.823315e+001 4.816808e+001 4.005442e+001 6.022628e+001 7.113538e+001 1.370121e+000 9.633052e-001 1.955415e+000 2.401330e+000 1.766886e+000 2.895985e+000 3.964052e+000 2.420329e+000 2.020555e+000 2.354452e+000 2.823123e+000 3.133699e+000 1.621041e+000 1.673483e-001 1.475191e-001 2.477767e-001 3.852679e-001 2.981241e-001 3.536808e-001 5.570751e-001 4.321526e-001 3.366680e-001 3.485811e-001 4.632126e-001 4.804938e-001 1.463883e-001
<GCONST> 1.162644e+002
<STATE> 5
<MEAN> 39
 -3.482129e+000 -7.819266e+000 -1.601655e+001 -1.505885e+001 -5.972747e-001 3.451993e+000 1.184671e+000 -7.202127e+000 -3.760813e+000 -6.939533e+000 -7.356178e-001 -3.161976e+000 6.471732e+001 -4.222341e-001 4.486948e-001 5.746178e-001 7.323470e-001 2.538455e-001 -4.544022e-001 -3.822578e-001 2.733173e-001 1.599793e-001 1.239216e-001 -1.826078e-001 -1.403274e-001 -7.316081e-001 -1.015925e-002 -5.096202e-002 9.187066e-002 9.321272e-002 5.962656e-002 6.864543e-002 8.845729e-002 2.656196e-002 -7.016128e-003 1.043130e-002 -1.260547e-002 -2.063927e-002 3.577237e-002
<VARIANCE> 39
 8.944422e+000 4.107465e+001 1.123474e+002 4.783216e+001 6.530553e+001 3.605322e+001 9.304524e+001 3.991702e+001 3.489578e+001 4.550338e+001 4.292554e+001 3.643140e+001 3.350665e+001 4.080225e-001 4.874555e-001 9.180475e-001 1.672527e+000 1.379021e+000 1.459483e+000 1.756925e+000 1.795732e+000 1.440801e+000 1.321105e+000 1.475114e+000 1.557102e+000 2.559359e-001 6.422621e-002 7.191850e-002 1.445703e-001 2.232413e-001 2.542582e-001 1.968663e-001 2.658750e-001 2.709663e-001 2.456737e-001 2.217204e-001 2.427463e-001 2.975869e-001 3.127180e-002
<GCONST> 9.772926e+001
<TRANSP> 6
 0.000000e+000 9.500154e-001 4.998467e-002 0.000000e+000 0.000000e+000 0.000000e+000
 0.000000e+000 8.430893e-001 9.910993e-002 5.780074e-002 0.000000e+000 0.000000e+000
 0.000000e+000 0.000000e+000 9.509125e-001 1.132830e-002 3.775927e-002 0.000000e+000
 0.000000e+000 0.000000e+000 0.000000e+000 9.609573e-001 3.904267e-002 0.000000e+000
 0.000000e+000 0.000000e+000 0.000000e+000 0.000000e+000 8.741695e-001 1.258305e-001
 0.000000e+000 0.000000e+000 0.000000e+000 0.000000e+000 0.000000e+000 0.000000e+000
<ENDHMM>
~h "dao_4"
<BEGINHMM>
<NUMSTATES> 6
<STATE> 2
<MEAN> 39
 -7.656811e+000 -1.452055e+001 -1.130686e+001 -1.354159e+001 4.096233e+000 3.155514e+000 -3.984436e+000 -8.216065e+000 -2.597645e+000 -5.710386e+000 -2.655027e+000 -4.108197e+000 7.929981e+001 4.716007e-001 -3.206610e-001 -7.739749e-001 -7.187707e-001 2.455180e-001 8.503677e-001 -1.232138e-001 -5.228713e-001 -3.698926e-001 -9.558742e-002 -6.912167e-003 -8.997970e-001 9.554289e-001 1.826805e-002 1.047701e-001 -5.123274e-002 3.533228e-002 -6.206688e-003 5.772793e-002 9.130595e-002 -4.040004e-002 -1.854700e-002 -1.300810e-002 1.265368e-001 6.508931e-002 -2.612757e-001
<VARIANCE> 39
 2.442839e+001 4.959232e+001 5.219569e+001 4.576015e+001 5.489336e+001 6.415583e+001 4.571859e+001 3.632407e+001 4.248624e+001 3.499508e+001 3.000511e+001 4.446538e+001 1.238170e+002 1.703261e+000 1.750558e+000 2.095280e+000 3.204743e+000 2.713785e+000 4.621588e+000 4.800264e+000 3.428233e+000 3.470418e+000 2.021730e+000 3.911478e+000 2.429588e+000 5.737791e+000 2.079962e-001 2.132114e-001 2.930583e-001 4.116252e-001 4.628127e-001 6.680086e-001 8.043830e-001 5.472953e-001 5.365001e-001 3.691723e-001 7.423265e-001 4.372797e-001 6.840070e-001
<GCONST> 1.253805e+002
<STATE> 3
<MEAN> 39
 -6.120270e+000 -1.022793e+001 -1.164773e+001 -2.560668e+001 6.727000e+000 1.107335e+001 1.153359e+000 -2.010096e+001 -9.919415e+000 -2.928628e+000 -1.370043e+000 -9.422132e+000 8.008311e+001 -2.485431e-002 4.720854e-001 -9.459259e-002 -3.062735e-001 -2.484515e-001 2.735356e-001 1.700048e-001 -1.707270e-002 1.783582e-001 -6.824812e-002 8.498316e-002 7.513018e-001 -1.376471e-001 2.212919e-002 6.592837e-002 -1.378322e-002 5.926017e-002 -7.626418e-002 -6.880278e-002 -2.894196e-002 1.099467e-001 6.332546e-002 -7.536971e-003 -6.911160e-002 4.639371e-002 -3.626718e-002
<VARIANCE> 39
 1.464060e+000 1.306421e+001 3.126282e+000 1.416556e+001 7.704351e+000 1.040215e+001 1.366950e+001 7.775438e+000 2.154060e+001 1.353575e+001 1.068256e+001 5.177934e+001 2.364008e+000 1.065519e-001 3.009581e-001 2.466933e-001 4.556419e-001 6.072606e-001 8.884686e-001 9.123508e-001 1.138619e+000 8.895379e-001 6.022543e-001 1.051122e+000 9.901937e-001 7.958026e-002 1.860004e-002 3.788808e-002 5.188707e-002 7.382812e-002 9.083714e-002 1.255362e-001 2.243945e-001 2.092016e-001 1.976118e-001 1.124673e-001 2.012658e-001 2.115256e-001 4.973736e-003
<GCONST> 5.837875e+001
<STATE> 4
<MEAN> 39
 4.593014e+000 -9.085198e+000 -1.919596e+001 -2.325631e+001 1.087874e+001 1.812924e+001 1.242583e+000 -8.740553e+000 -1.037440e+001 -1.292575e+001 -3.305253e+000 -5.151784e+000 6.473179e+001 -1.586071e-002 3.431085e-001 -7.212492e-001 3.791535e-001 3.857934e-003 3.887883e-001 8.479525e-001 2.213047e-001 -8.653220e-002 -3.028735e-001 -1.608022e-001 4.603144e-001 -1.498757e+000 -8.167036e-002 -3.340785e-002 2.009586e-001 6.193964e-002 -1.634135e-002 -1.572107e-001 -4.469732e-002 1.039827e-002 3.330820e-002 9.769383e-002 -4.538954e-002 2.842844e-002 3.358706e-002
<VARIANCE> 39
 2.609734e+001 1.238250e+001 8.273128e+001 4.786723e+001 4.871284e+001 8.841938e+001 7.102813e+001 3.971023e+001 5.421876e+001 3.713850e+001 5.399728e+001 4.046285e+001 1.409808e+002 7.211614e-001 1.294342e+000 2.044058e+000 2.098053e+000 2.157720e+000 2.533244e+000 3.606455e+000 2.233936e+000 2.524565e+000 2.247282e+000 3.234472e+000 2.671511e+000 3.952956e-001 8.622427e-002 2.008566e-001 3.731521e-001 2.785012e-001 3.840599e-001 3.808043e-001 6.014346e-001 4.591412e-001 5.312592e-001 4.213673e-001 4.922715e-001 4.969169e-001 4.713728e-002
<GCONST> 1.149451e+002
<STATE> 5
<MEAN> 39
 -3.549531e+000 -6.628640e+000 -1.405808e+001 -1.568099e+001 -3.121206e+000 4.233684e+000 4.843836e+000 -7.696362e+000 -3.579194e+000 -2.537168e+000 2.201523e-001 -3.983868e+000 6.703496e+001 -2.323126e-001 1.043932e-001 3.935215e-001 4.641553e-001 7.864486e-002 -1.603321e-001 2.035886e-002 3.283231e-001 1.609095e-001 5.636846e-002 1.229859e-001 1.057924e-001 -5.574752e-001 -2.611435e-002 -2.968788e-002 1.709633e-002 -7.835256e-003 3.239195e-002 -9.982610e-003 -3.643898e-002 3.021004e-002 -1.700561e-003 -1.099038e-002 9.140721e-003 -7.650171e-003 1.976297e-002
<VARIANCE> 39
 1.069908e+001 3.740813e+001 1.019845e+002 5.683306e+001 1.012608e+002 4.359933e+001 1.766367e+002 2.964285e+001 3.986454e+001 4.323808e+001 2.858266e+001 5.372009e+001 2.871195e+001 3.340781e-001 5.741279e-001 6.635207e-001 1.544885e+000 1.538840e+000 1.359378e+000 1.651190e+000 1.745353e+000 1.554073e+000 1.392231e+000 1.690140e+000 1.690728e+000 2.241609e-001 4.066521e-002 9.369041e-002 1.146340e-001 2.111138e-001 2.468950e-001 2.303460e-001 2.619124e-001 2.581820e-001 2.700943e-001 2.208168e-001 3.257308e-001 2.808615e-001 2.871341e-002
<GCONST> 9.831902e+001
<TRANSP> 6
 0.000000e+000 1.000000e+000 0.000000e+000 0.000000e+000 0.000000e+000 0.000000e+000
 0.000000e+000 9.166102e-001 2.084747e-002 6.254240e-002 0.000000e+000 0.000000e+000
 0.000000e+000 0.000000e+000 9.610846e-001 3.891538e-002 0.000000e+000 0.000000e+000
 0.000000e+000 0.000000e+000 0.000000e+000 8.745851e-001 1.254149e-001 0.000000e+000
 0.000000e+000 0.000000e+000 0.000000e+000 0.000000e+000 9.373449e-001 6.265508e-002
 0.000000e+000 0.000000e+000 0.000000e+000 0.000000e+000 0.000000e+000 0.000000e+000
<ENDHMM>
~h "de_5"
<BEGINHMM>
<NUMSTATES> 6
<STATE> 2
<MEAN> 39
 -7.174331e+000 -6.215493e+000 -5.877286e+000 -1.031960e+001 -4.394974e+000 -8.305500e+000 -5.404113e+000 -4.400486e+000 1.328756e+000 -1.521331e-002 -3.959315e+000 -1.558951e+000 6.935670e+001 7.294549e-001 -8.783078e-001 -5.119931e-001 -9.593052e-001 -4.207031e-001 -7.457088e-001 -5.677053e-001 7.899534e-002 3.370651e-001 3.209465e-001 -1.467398e+000 -4.842381e-001 2.555402e+000 -4.588715e-002 -1.108552e-001 -1.062697e-001 -1.034018e-001 1.690370e-001 3.601838e-001 2.793144e-001 1.181618e-001 -9.769441e-002 -5.015827e-002 1.213404e-001 -2.172868e-001 -4.632680e-002
<VARIANCE> 39
 1.476160e+001 2.098208e+001 3.177579e+001 3.685062e+001 5.509933e+001 6.363647e+001 5.507578e+001 4.466010e+001 2.555348e+001 2.550208e+001 4.981962e+001 6.008445e+001 6.335607e+001 1.093362e+000 2.445383e+000 2.991525e+000 2.927501e+000 2.310675e+000 4.213956e+000 8.382404e+000 6.770722e+000 2.789369e+000 2.517683e+000 2.466541e+000 3.919940e+000 3.330375e+000 1.949386e-001 2.982145e-001 3.230582e-001 5.596186e-001 5.417189e-001 8.839756e-001 1.325599e+000 1.041647e+000 4.934222e-001 4.433161e-001 5.410745e-001 5.826010e-001 7.408175e-001
<GCONST> 1.260269e+002
<STATE> 3
<MEAN> 39
 -4.610273e+000 -1.537146e+001 -1.375808e+001 -1.845910e+001 -1.077909e+000 -6.400164e+000 -1.149787e+000 -1.939066e-001 3.293693e+000 -4.288629e+000 -1.158337e+001 -2.604127e+000 8.273351e+001 1.943900e-002 -3.646609e-001 -7.774823e-001 4.503516e-002 1.515001e+000 1.486134e+000 6.156631e-001 -5.758951e-001 -1.460140e-001 -5.089620e-001 7.905340e-002 -8.283290e-001 -1.024738e-001 6.943370e-002 2.473029e-001 1.584261e-001 2.167492e-001 -1.222716e-001 -9.636368e-002 -2.623660e-001 -3.029450e-001 -3.273434e-002 -1.121320e-001 1.990916e-001 1.635350e-001 -4.073676e-001
<VARIANCE> 39
 5.068647e+000 1.274659e+001 2.321946e+001 1.806032e+001 6.516840e+001 2.596239e+001 4.119334e+001 3.040956e+001 1.757187e+001 2.702172e+001 1.580703e+001 5.785610e+001 1.475611e+001 4.306828e-001 6.467586e-001 7.456387e-001 1.422443e+000 1.368908e+000 1.946169e+000 3.438218e+000 2.545969e+000 1.514706e+000 9.592460e-001 1.672924e+000 2.283142e+000 1.291541e+000 6.250204e-002 1.000200e-001 1.867085e-001 2.166106e-001 1.774711e-001 2.965404e-001 4.383233e-001 6.603132e-001 3.462589e-001 1.528916e-001 2.513618e-001 4.095269e-001 3.731591e-002
<GCONST> 9.505582e+001
<STATE> 4
<MEAN> 39
 -4.820330e+000 -1.065149e+001 -9.976028e+000 -1.609210e+001 -5.254149e+000 2.381503e-001 1.753993e+000 -1.147756e+001 -3.770170e-002 1.569410e+000 -3.206111e+000 -1.084648e+001 7.484566e+001 6.969924e-002 7.810465e-002 -5.723117e-002 3.614699e-002 -1.325273e-001 2.864738e-001 1.251097e-001 -1.734151e-001 2.843928e-001 -6.892908e-002 2.060777e-001 -6.891295e-002 -4.499113e-001 -2.417002e-002 5.343408e-002 2.640953e-002 7.151523e-002 -1.462723e-002 -1.742699e-001 -6.116289e-002 1.836120e-001 1.493749e-001 3.509871e-002 -4.680959e-002 4.360351e-002 -8.769043e-002
<VARIANCE> 39
 6.644384e+000 1.268378e+001 6.547511e+001 2.014800e+001 4.857452e+001 1.982430e+001 1.197993e+002 2.793942e+001 4.129613e+001 2.862575e+001 2.424307e+001 5.437758e+001 1.314428e+001 2.263586e-001 3.060358e-001 3.724812e-001 8.689839e-001 5.004546e-001 1.197565e+000 9.110072e-001 1.216530e+000 1.236374e+000 1.343858e+000 8.060246e-001 1.071629e+000 3.476239e-001 3.497759e-002 6.488380e-002 8.267748e-002 1.059808e-001 1.185094e-001 1.173998e-001 1.566242e-001 1.994640e-001 2.405507e-001 3.012060e-001 1.991810e-001 1.681534e-001 1.577928e-002
<GCONST> 8.147815e+001
<STATE> 5
<MEAN> 39
 -4.953074e+000 -9.695425e+000 -1.479084e+001 -1.239033e+001 -2.499313e+000 -2.552652e+000 5.327970e-001 -2.983656e+000 6.238699e+000 -3.526188e+000 -6.448561e+000 -7.455584e+000 6.563425e+001 -4.407559e-001 4.164655e-001 4.018953e-001 5.057639e-001 6.636151e-002 -2.853223e-003 1.897240e-001 8.778002e-001 3.150403e-002 1.186768e-001 4.060085e-001 3.286064e-001 -1.211797e+000 -4.942305e-002 -4.087115e-002 8.281066e-002 -8.808792e-002 8.485781e-002 1.291420e-001 9.032208e-003 -1.639728e-002 -1.293828e-001 1.505476e-002 9.134979e-003 4.886368e-002 8.491345e-002
<VARIANCE> 39
 1.222067e+001 1.230579e+001 3.489391e+001 1.517041e+001 3.793787e+001 3.050068e+001 6.218061e+001 3.399569e+001 1.982422e+001 5.818646e+001 4.892031e+001 2.460547e+001 2.259224e+001 3.948602e-001 4.908100e-001 1.201298e+000 8.250180e-001 2.384654e+000 1.863222e+000 2.482164e+000 2.404039e+000 2.156853e+000 2.157220e+000 2.334783e+000 2.472322e+000 6.541502e-001 6.222439e-002 8.011642e-002 1.969067e-001 1.337264e-001 2.777554e-001 3.056776e-001 3.853029e-001 3.783553e-001 3.631214e-001 3.466104e-001 4.082797e-001 4.964105e-001 6.836852e-002
<GCONST> 9.974554e+001
<TRANSP> 6
 0.000000e+000 1.000000e+000 0.000000e+000 0.000000e+000 0.000000e+000 0.000000e+000
 0.000000e+000 8.030112e-001 1.969888e-001 0.000000e+000 0.000000e+000 0.000000e+000
 0.000000e+000 0.000000e+000 8.092185e-001 1.907815e-001 0.000000e+000 0.000000e+000
 0.000000e+000 0.000000e+000 0.000000e+000 8.999966e-001 1.000034e-001 0.000000e+000
 0.000000e+000 0.000000e+000 0.000000e+000 0.000000e+000 8.914888e-001 1.085112e-001
 0.000000e+000 0.000000e+000 0.000000e+000 0.000000e+000 0.000000e+000 0.000000e+000
<ENDHMM>
~h "dian_4"
<BEGINHMM>
<NUMSTATES> 6
<STATE> 2
<MEAN> 39
 -7.987109e+000 -4.769646e+000 4.981428e+000 -1.004648e+001 -6.897178e+000 -4.309361e+000 -1.936210e+000 -1.612408e+001 -7.670302e+000 -7.191187e+000 1.961045e+000 -2.846389e+000 6.935799e+001 4.517234e-001 6.657802e-001 1.995209e+000 -9.208646e-001 -2.148344e+000 -3.897634e-001 -1.297140e+000 -1.288007e-001 -1.332192e+000 -1.307220e-001 -4.345848e-001 -6.013547e-001 1.153311e+000 -3.582314e-002 -2.552021e-001 -1.332622e-001 -1.250330e-001 8.424950e-002 1.192382e-001 1.632900e-001 3.393196e-001 1.286652e-001 3.341131e-001 4.470580e-003 9.701616e-003 -1.418623e-001
<VARIANCE> 39
 3.686253e+001 4.766648e+001 1.043993e+002 6.880870e+001 1.674340e+002 6.958871e+001 9.369922e+001 1.752504e+002 9.748283e+001 9.184654e+001 4.841831e+001 2.584370e+001 4.663921e+001 3.210690e+000 3.555933e+000 3.769058e+000 2.296616e+000 5.542947e+000 5.257324e+000 9.172199e+000 8.864897e+000 4.652427e+000 4.533619e+000 3.344851e+000 2.022303e+000 1.909589e+000 2.807585e-001 4.921927e-001 6.385637e-001 2.042686e-001 6.299880e-001 8.651082e-001 1.275359e+000 8.673480e-001 7.480273e-001 7.961980e-001 3.963466e-001 4.208180e-001 2.152444e-001
<GCONST> 1.367758e+002
<STATE> 3
<MEAN> 39
 -1.088890e+001 -1.779552e+000 1.167306e+001 -1.821897e+001 -1.354760e+001 -8.798820e+000 -7.004229e+000 -1.521341e+001 -8.824840e+000 3.480608e+000 -6.404538e+000 -3.549993e+000 7.400760e+001 -2.388613e-001 -5.792217e-001 -8.340949e-002 -3.520434e-001 -2.436429e-002 7.792157e-003 7.972583e-001 4.067366e-001 2.883936e-001 1.856559e-001 -5.284516e-001 4.440289e-001 5.668590e-001 4.014366e-002 -5.282494e-002 -2.102498e-001 1.754480e-001 4.354654e-002 -2.172198e-002 1.883399e-001 -4.129619e-002 6.713361e-002 -1.708922e-001 1.287660e-001 2.309842e-002 -1.813360e-002
<VARIANCE> 39
 1.725422e+001 6.241829e+000 9.490456e+000 1.004898e+002 1.401196e+001 2.203419e+001 2.431201e+001 6.516942e+001 1.317213e+001 2.523654e+001 4.258662e+001 1.661407e+001 2.212805e+001 4.305436e-001 5.523416e-001 8.859603e-001 9.307562e-001 1.258801e+000 1.627052e+000 1.517319e+000 2.600374e+000 9.744668e-001 2.576066e+000 2.166543e+000 1.671873e+000 4.365511e-001 9.139221e-002 9.411536e-002 1.644143e-001 1.829769e-001 2.082120e-001 3.402106e-001 2.534852e-001 6.074517e-001 1.717822e-001 4.495508e-001 3.973225e-001 3.588078e-001 2.755377e-002
<GCONST> 9.274286e+001
<STATE> 4
<MEAN> 39
 -3.500720e+000 -1.284269e+001 1.103156e+001 -1.254377e+001 -2.094888e+001 -1.708077e-001 1.079158e+001 -1.032956e+001 -1.738262e+001 -9.726554e+000 1.630939e-002 -3.969071e+000 7.173059e+001 5.691303e-002 -6.462356e-001 -1.281053e+000 7.312855e-001 3.884199e-001 1.001875e-001 1.418363e+000 1.208635e+000 -3.093759e-001 -3.225324e-001 -3.681512e-001 4.402695e-002 -6.761771e-001 -5.843349e-002 9.448439e-002 -1.100858e-001 1.456933e-001 2.450521e-001 -3.577898e-002 -1.633149e-001 -2.662948e-002 -4.164248e-003 -2.466988e-001 -7.992860e-002 5.888408e-002 -1.081641e-001
<VARIANCE> 39
 9.357712e+001 2.855876e+001 1.119974e+002 1.364552e+002 8.532798e+001 2.017269e+002 1.258218e+002 7.367214e+001 1.192519e+002 9.530389e+001 7.699850e+001 2.428658e+001 1.269647e+002 7.134861e-001 1.784630e+000 2.382361e+000 2.658529e+000 3.424864e+000 3.806353e+000 2.863306e+000 2.598054e+000 3.765296e+000 4.151417e+000 3.122045e+000 1.754523e+000 1.884632e+000 5.883753e-002 1.239721e-001 2.929923e-001 3.490111e-001 3.882101e-001 5.112297e-001 3.875060e-001 4.088326e-001 6.954427e-001 5.268478e-001 3.871145e-001 2.623858e-001 8.030491e-002
<GCONST> 1.250784e+002
<STATE> 5
<MEAN> 39
 -7.728640e+000 -1.259774e+001 -8.200113e-001 -9.345433e+000 -1.066156e+001 -7.414910e+000 8.187909e+000 -4.169859e-001 -6.591754e+000 -8.835120e+000 -5.737082e+000 -3.038706e+000 7.116521e+001 1.344512e-001 3.573899e-001 -2.332175e-001 7.351995e-001 5.440112e-001 3.291618e-001 -3.677228e-001 8.279230e-002 4.061469e-001 -1.765484e-001 9.798969e-002 -1.700359e-001 -1.091385e+000 -5.069934e-002 6.950781e-002 1.077835e-001 -7.666732e-002 -1.391478e-002 2.966248e-003 -7.920060e-002 -1.199064e-001 1.151839e-002 1.217855e-001 5.370275e-002 -6.184285e-003 -2.046681e-002
<VARIANCE> 39
 8.592342e+000 4.849649e+001 1.858053e+001 4.462281e+001 9.158509e+001 2.931306e+001 3.618127e+001 4.288517e+001 5.383156e+001 3.850114e+001 2.203708e+001 3.013165e+001 7.466819e+001 6.174976e-001 6.839656e-001 1.003685e+000 1.057366e+000 1.478395e+000 1.190530e+000 1.414582e+000 1.475320e+000 1.700808e+000 2.160483e+000 2.049809e+000 1.797006e+000 3.967739e-001 5.829929e-002 9.672308e-002 1.385323e-001 1.789596e-001 1.606959e-001 1.868292e-001 2.061758e-001 2.212886e-001 2.970451e-001 2.828876e-001 2.639047e-001 3.485703e-001 4.698731e-002
<GCONST> 9.691074e+001
<TRANSP> 6
 0.000000e+000 1.000000e+000 4.586644e-009 0.000000e+000 0.000000e+000 0.000000e+000
 0.000000e+000 8.451542e-001 7.742304e-002 7.742274e-002 0.000000e+000 0.000000e+000
 0.000000e+000 0.000000e+000 9.223367e-001 7.766330e-002 0.000000e+000 0.000000e+000
 0.000000e+000 0.000000e+000 0.000000e+000 8.635612e-001 1.364388e-001 0.000000e+000
 0.000000e+000 0.000000e+000 0.000000e+000 0.000000e+000 9.136040e-001 8.639600e-002
 0.000000e+000 0.000000e+000 0.000000e+000 0.000000e+000 0.000000e+000 0.000000e+000
<ENDHMM>
~h "er_3"
<BEGINHMM>
<NUMSTATES> 6
<STATE> 2
<MEAN> 39
 -4.807202e+000 -1.529134e+001 -1.725801e+001 -1.209119e+001 -3.140896e+000 -3.238868e+000 9.051896e+000 -5.054005e+000 -3.584701e+000 -4.276139e+000 1.434748e-001 -4.652790e+000 7.642326e+001 5.012255e-001 -8.821043e-002 -5.075231e-001 2.846973e-001 -3.739119e-001 -1.323089e+000 -5.613239e-001 3.031935e-001 4.431218e-001 9.980911e-003 1.933422e-001 2.987201e-001 1.363768e-001 9.635366e-002 6.841930e-002 4.116163e-002 1.490380e-001 -5.724750e-002 -6.187261e-002 -2.313096e-001 1.182916e-002 1.000851e-001 -3.847579e-003 -1.127107e-002 -1.863532e-003 -1.457160e-001
<VARIANCE> 39
 1.918495e+001 2.389843e+001 3.208715e+001 2.170623e+001 3.060730e+001 3.238231e+001 7.032367e+001 3.264965e+001 4.769877e+001 2.113148e+001 2.283764e+001 1.403079e+001 1.032812e+002 6.342903e-001 6.871998e-001 1.037220e+000 6.955566e-001 9.761863e-001 9.239352e-001 1.831870e+000 1.476569e+000 2.388136e+000 1.501957e+000 1.147490e+000 9.315822e-001 1.001883e+000 8.252450e-002 9.165236e-002 1.306620e-001 7.542498e-002 1.722345e-001 1.328486e-001 2.324989e-001 1.964985e-001 2.651411e-001 2.449486e-001 1.383102e-001 1.448499e-001 5.532117e-002
<GCONST> 9.148592e+001
<STATE> 3
<MEAN> 39
 3.091796e+000 -1.941758e+001 -1.843523e+001 -2.518125e+000 -1.369321e+001 -1.712666e+001 -4.620758e+000 -9.588022e-001 1.806470e-001 -2.268845e+000 3.454689e+000 -2.651198e+000 7.940644e+001 1.035967e+000 4.006750e-001 1.367383e-001 6.864961e-001 -6.679074e-001 -5.666931e-001 -1.237612e+000 -1.080849e+000 1.679709e-001 1.008844e+000 4.845393e-001 3.783857e-001 -1.336534e+000 -2.072854e-001 5.912546e-002 1.420351e-001 -1.662550e-001 4.376830e-001 2.904912e-001 1.357370e-001 -1.643251e-001 -1.175490e-001 -4.826691e-002 -1.740013e-001 1.005560e-002 6.234176e-003
<VARIANCE> 39
 2.231292e+001 1.570457e+001 1.026791e+001 2.212942e+001 2.961774e+001 2.652719e+001 3.235719e+001 4.099320e+001 2.334449e+001 3.962978e+001 2.998596e+001 1.389859e+001 3.614111e+001 1.532955e+000 4.431770e-001 1.062395e+000 1.691329e+000 4.513656e+000 1.853287e+000 2.125025e+000 2.334211e+000 2.065871e+000 2.406851e+000 2.880427e+000 1.123247e+000 3.315909e-001 1.612636e-001 1.010295e-001 1.677980e-001 3.057832e-001 3.025512e-001 1.757356e-001 3.057135e-001 3.878544e-001 4.281785e-001 5.068033e-001 4.415366e-001 2.354002e-001 7.112525e-002
<GCONST> 1.002795e+002
<STATE> 4
<MEAN> 39
 -7.430726e-002 -7.078993e+000 -1.385784e+001 -2.180248e+000 5.164523e+000 -9.301907e+000 -1.148220e+001 -6.275609e+000 5.469395e+000 9.421288e-001 -1.463975e+000 -2.138619e+000 6.971464e+001 -4.531363e-003 2.733167e-001 2.597618e-001 1.410753e-001 1.993553e-001 -8.865840e-002 -3.626830e-001 1.388207e-001 3.797674e-001 9.828190e-002 -1.090244e-002 1.380109e-001 -1.964198e-001 -6.033112e-002 3.446232e-002 6.333743e-002 -2.923105e-002 -4.157741e-002 1.204808e-001 1.819792e-001 1.296240e-002 -2.751008e-002 -4.184872e-002 5.449097e-002 -3.899202e-002 -3.139193e-002
<VARIANCE> 39
 4.312172e+000 1.205961e+001 9.757353e+000 1.574954e+001 2.096026e+001 1.638288e+001 2.871377e+001 1.946175e+001 3.599215e+001 8.602509e+000 9.298676e+000 1.094735e+001 2.505617e+000 2.663073e-001 3.641943e-001 5.429065e-001 7.473781e-001 8.543981e-001 8.810624e-001 1.775479e+000 1.184409e+000 1.605004e+000 7.501686e-001 9.392205e-001 1.185995e+000 1.512364e-001 4.796788e-002 7.398067e-002 9.148894e-002 1.285540e-001 1.190647e-001 1.597370e-001 2.369835e-001 2.455066e-001 2.716666e-001 1.471594e-001 1.353533e-001 2.208372e-001 1.439309e-002
<GCONST> 7.187243e+001
<STATE> 5
<MEAN> 39
 -1.362275e+000 -6.186291e+000 -7.639955e+000 -4.455760e+000 -1.328487e-001 -6.480286e+000 -5.656175e+000 -4.570087e+000 5.971844e-001 2.163147e-001 6.676958e-001 -1.543739e+000 6.691473e+001 -9.700767e-001 6.600670e-001 6.118842e-001 1.309198e-001 3.848023e-001 1.024514e+000 1.116688e+000 1.086386e+000 5.694211e-002 -9.834064e-001 -4.259949e-003 -7.764923e-001 -8.318141e-001 -8.983801e-002 -1.084647e-001 -1.534140e-001 5.276599e-002 -7.950815e-002 -5.213678e-002 5.867197e-002 3.260926e-001 1.898683e-001 -9.907041e-002 -1.093362e-001 -1.512534e-001 4.507126e-002
<VARIANCE> 39
 2.350343e+001 5.735888e+001 6.391158e+001 3.529578e+001 2.628281e+001 2.298538e+001 2.113703e+001 3.445446e+001 7.360910e+001 1.472991e+001 3.425007e+001 2.430115e+001 1.454044e+001 4.344168e-001 7.718727e-001 1.809716e+000 9.846650e-001 1.682998e+000 2.053956e+000 3.343751e+000 2.473306e+000 1.817319e+000 1.165917e+000 2.141811e+000 1.590762e+000 3.410649e-001 1.162536e-001 8.800200e-002 1.247352e-001 6.848649e-002 2.274945e-001 1.762989e-001 5.600033e-001 3.206975e-001 3.048470e-001 2.457893e-001 4.611613e-001 3.714225e-001 3.107586e-002
<GCONST> 9.762295e+001
<TRANSP> 6
 0.000000e+000 1.000000e+000 0.000000e+000 0.000000e+000 0.000000e+000 0.000000e+000
 0.000000e+000 8.575906e-001 8.552874e-002 5.688069e-002 0.000000e+000 0.000000e+000
 0.000000e+000 0.000000e+000 8.711920e-001 1.288080e-001 0.000000e+000 0.000000e+000
 0.000000e+000 0.000000e+000 0.000000e+000 8.908468e-001 8.004560e-002 2.910762e-002
 0.000000e+000 0.000000e+000 0.000000e+000 0.000000e+000 7.856129e-001 2.143871e-001
 0.000000e+000 0.000000e+000 0.000000e+000 0.000000e+000 0.000000e+000 0.000000e+000
<ENDHMM>
~h "fei_1"
<BEGINHMM>
<NUMSTATES> 6
<STATE> 2
<MEAN> 39
 -1.300578e+001 -1.529053e+001 -1.695414e+000 -6.161453e+000 3.958386e+000 -6.086344e+000 3.199373e+000 -6.412908e+000 -4.541940e+000 -6.623616e+000 1.503202e+000 -3.825230e+000 6.851196e+001 1.010489e+000 -7.830581e-002 1.263722e-001 -1.711347e-001 -6.052064e-001 -5.400394e-001 -1.888731e-001 -2.066123e-001 -5.477751e-002 -3.178559e-001 -2.971545e-001 -1.045595e+000 1.507432e+000 -2.115658e-002 -8.741635e-003 1.046642e-001 2.929359e-002 -1.258004e-001 9.985866e-002 3.785727e-002 2.456163e-002 -1.883433e-001 -1.391706e-001 -3.996257e-002 -1.460645e-002 -1.125056e-001
<VARIANCE> 39
 8.926724e+001 1.022468e+002 5.784472e+001 4.770583e+001 1.878573e+002 5.884412e+001 6.960038e+001 5.664870e+001 6.348384e+001 9.076153e+001 5.037538e+001 6.677244e+001 7.478251e+001 6.352887e+000 3.451896e+000 3.106550e+000 3.183613e+000 5.694321e+000 4.313265e+000 5.199347e+000 5.670033e+000 5.468162e+000 6.460523e+000 5.322444e+000 3.355974e+000 1.819751e+000 9.578722e-001 5.452753e-001 4.062650e-001 4.677064e-001 6.632935e-001 8.086802e-001 6.977956e-001 8.374822e-001 7.974244e-001 1.008380e+000 8.464062e-001 4.694510e-001 2.523168e-001
<GCONST> 1.404257e+002
<STATE> 3
<MEAN> 39
 2.358483e+000 -3.279025e+000 1.440575e+001 -1.844181e+000 -5.749067e+000 -2.642024e+000 -3.883858e+000 -6.156672e+000 -1.469153e+001 -1.045683e+001 2.068925e+000 -8.097041e+000 6.553868e+001 -6.537951e-001 1.120589e+000 2.365602e-001 3.493061e-001 1.279929e-001 4.364908e-001 1.719649e-001 -1.661881e-001 2.684143e-001 2.265000e-001 -4.174123e-001 3.751381e-001 -1.509521e+000 -1.153941e-001 3.760333e-002 -5.524191e-002 -4.039149e-002 2.191868e-001 -2.023515e-002 2.124234e-003 -8.922870e-002 1.137695e-001 1.170715e-001 -4.553745e-002 1.392122e-001 -9.446627e-002
<VARIANCE> 39
 3.230119e+001 1.213630e+002 1.231395e+002 5.757996e+001 1.743800e+002 8.198026e+001 9.137869e+001 6.690656e+001 8.153812e+001 6.942416e+001 7.409180e+001 9.642869e+001 1.446505e+002 6.730210e-001 2.380768e+000 3.273074e+000 1.831660e+000 3.966485e+000 2.016272e+000 3.756051e+000 3.056806e+000 3.149900e+000 3.190762e+000 2.236320e+000 2.613143e+000 1.617111e+000 1.175282e-001 2.740553e-001 3.037511e-001 2.970969e-001 3.469668e-001 3.063282e-001 5.387312e-001 3.865925e-001 3.959555e-001 4.190204e-001 4.421981e-001 4.425943e-001 1.198492e-001
<GCONST> 1.257291e+002
<STATE> 4
<MEAN> 39
 -1.109671e+001 -9.890982e+000 4.531560e+000 -1.928887e+001 -2.129665e+001 -1.410384e+001 4.509774e+000 -6.968786e+000 -3.515585e+000 4.709566e+000 -5.042106e+000 -5.605502e+000 7.513601e+001 2.576787e-002 5.603192e-001 2.995349e-001 -1.006052e-002 2.080562e-004 1.759543e-001 -3.017197e-001 -5.779536e-001 -1.063266e-001 -7.931754e-004 -1.833193e-001 2.011056e-003 -8.921207e-001 2.898922e-002 2.029736e-002 -8.776482e-002 2.586018e-002 6.664857e-002 8.038783e-003 -9.430916e-002 1.178540e-002 4.691190e-002 -5.373955e-002 3.383078e-002 -1.508406e-002 -5.229840e-002
<VARIANCE> 39
 1.392841e+001 3.052400e+001 2.295753e+001 7.142445e+001 3.275167e+001 3.521508e+001 6.618752e+001 6.242852e+001 6.032879e+001 2.636610e+001 3.871960e+001 1.787087e+001 9.073661e+001 6.855391e-001 7.244168e-001 1.586103e+000 2.400846e+000 1.903923e+000 2.412378e+000 2.563922e+000 2.330947e+000 4.788462e+000 3.633586e+000 2.708185e+000 1.632846e+000 4.829242e-001 1.019608e-001 1.575015e-001 2.417404e-001 3.291139e-001 2.421574e-001 4.638182e-001 4.994881e-001 4.861083e-001 1.083448e+000 7.233742e-001 5.734945e-001 3.232403e-001 4.384131e-002
<GCONST> 1.111720e+002
<STATE> 5
<MEAN> 39
 -7.778568e+000 -2.457190e+000 7.142450e+000 -1.146065e+001 -6.286885e+000 -7.946428e+000 -6.623597e+000 -1.235741e+001 -9.771761e+000 -4.551937e+000 -3.642512e+000 -5.220924e+000 7.019623e+001 -1.293181e-001 2.237272e-001 2.756955e-002 1.407263e-001 1.767741e-001 1.963749e-001 -4.601925e-003 1.075606e-001 -1.485780e-003 3.229680e-002 2.267026e-001 -5.495904e-002 -2.340319e-001 7.989424e-003 6.961465e-003 -3.249669e-003 4.735290e-002 8.473800e-003 1.451500e-002 1.635657e-002 -1.496081e-003 -7.865096e-003 5.128371e-002 7.115203e-003 8.670256e-003 -1.060467e-002
<VARIANCE> 39
 3.188916e+000 2.850305e+001 3.813300e+001 4.120819e+001 4.651675e+001 2.237430e+001 2.304349e+001 2.696412e+001 2.538875e+001 3.664807e+001 1.943927e+001 2.595697e+001 3.329177e+001 1.628165e-001 3.240105e-001 1.183074e+000 1.397087e+000 1.292745e+000 9.567471e-001 1.353672e+000 1.539706e+000 1.580858e+000 1.715369e+000 1.139473e+000 1.465035e+000 1.266068e-001 2.233886e-002 5.286126e-002 1.126245e-001 1.784375e-001 1.528261e-001 1.375149e-001 2.097349e-001 2.277327e-001 2.631083e-001 2.229861e-001 1.857692e-001 2.142275e-001 1.665809e-002
<GCONST> 8.373431e+001
<TRANSP> 6
 0.000000e+000 1.000000e+000 0.000000e+000 0.000000e+000 0.000000e+000 0.000000e+000
 0.000000e+000 8.918502e-001 1.081498e-001 0.000000e+000 0.000000e+000 0.000000e+000
 0.000000e+000 0.000000e+000 8.197351e-001 8.111932e-002 9.914562e-002 0.000000e+000
 0.000000e+000 0.000000e+000 0.000000e+000 9.556791e-001 4.432090e-002 0.000000e+000
 0.000000e+000 0.000000e+000 0.000000e+000 0.000000e+000 9.212780e-001 7.872198e-002
 0.000000e+000 0.000000e+000 0.000000e+000 0.000000e+000 0.000000e+000 0.000000e+000
<ENDHMM>
~h "fu_4"
<BEGINHMM>
<NUMSTATES> 6
<STATE> 2
<MEAN> 39
 -1.785571e+001 -1.824322e+001 -5.526737e+000 -6.793137e+000 4.797099e+000 -2.564519e+000 4.413358e+000 -9.307614e+000 -1.326172e+000 -4.558431e+000 4.304903e+000 1.604470e+000 6.870231e+001 6.277167e-001 7.975309e-002 -2.015925e-001 -7.418581e-001 2.321815e-002 -3.388177e-001 -1.131924e-001 -7.369615e-001 -1.052836e+000 -1.268717e+000 -3.077920e-001 -1.683754e-001 1.226895e+000 4.507062e-001 3.476497e-001 6.747226e-002 -2.471453e-001 -1.549715e-001 -1.422477e-001 -3.733286e-001 -1.806683e-001 -4.813169e-001 -1.003100e-001 -1.172762e-001 -1.394358e-001 -8.468714e-002
<VARIANCE> 39
 1.758401e+001 1.343178e+002 2.750528e+001 3.432790e+001 1.623905e+002 7.585344e+001 3.480233e+001 5.007973e+001 3.455275e+001 5.448988e+001 2.857995e+001 3.056501e+001 4.792177e+001 2.983730e+000 2.682127e+000 1.685686e+000 4.809460e+000 2.949470e+000 3.617538e+000 3.526125e+000 3.535680e+000 4.765740e+000 4.029239e+000 3.042427e+000 2.802596e+000 2.067151e+000 2.761998e-001 3.235106e-001 2.728752e-001 8.690512e-001 5.181738e-001 4.717546e-001 5.810025e-001 5.985824e-001 7.539507e-001 6.318424e-001 4.993957e-001 4.913023e-001 1.627959e-001
<GCONST> 1.259659e+002
<STATE> 3
<MEAN> 39
 -7.013376e-001 -4.597438e+000 -6.661969e+000 -2.000677e+001 -1.712879e+000 -9.535485e+000 -5.578043e+000 -1.138470e+001 -1.471596e+001 -7.893633e+000 -3.919924e+000 3.374473e-001 7.313910e+001 1.395564e+000 1.174178e+000 -1.879486e-001 -6.650515e-001 -8.155949e-001 1.596599e-002 -4.307141e-001 -3.304148e-002 -5.108463e-001 -1.177743e-002 -7.637224e-001 -1.548223e-001 -4.662166e-001 -2.761913e-001 -1.288598e-001 -8.843275e-002 1.142754e-001 2.657057e-002 1.499529e-001 2.086425e-001 2.419711e-001 4.035637e-001 2.374192e-001 9.341711e-002 4.467782e-002 -1.681398e-001
<VARIANCE> 39
 5.221537e+001 3.321723e+001 7.531007e+001 1.366593e+002 1.033084e+002 4.845893e+001 3.543977e+001 8.482088e+001 8.679060e+001 1.012803e+002 4.679082e+001 4.105956e+001 3.161980e+001 2.857299e+000 2.505065e+000 3.079974e+000 8.919868e+000 6.920653e+000 3.448023e+000 5.556656e+000 6.459281e+000 1.265995e+001 5.454103e+000 3.918652e+000 4.127203e+000 1.624830e+000 2.839289e-001 3.615569e-001 4.109482e-001 9.705028e-001 9.818316e-001 6.089247e-001 9.498245e-001 1.270143e+000 1.858345e+000 1.331873e+000 7.221129e-001 8.114486e-001 1.401948e-001
<GCONST> 1.394199e+002
<STATE> 4
<MEAN> 39
 -2.024253e+000 2.778450e+000 -5.263328e+000 -1.280198e+001 -5.792109e+000 -5.281509e+000 -8.374525e+000 -1.767119e+001 -1.606934e+001 -1.859065e+000 8.090117e-001 3.809546e+000 6.824439e+001 -1.616922e-002 7.915092e-002 -4.582128e-002 1.568104e-001 4.208203e-002 -1.937186e-001 -1.198152e-001 2.331246e-001 4.568682e-001 1.590107e-001 -5.601830e-002 4.111280e-002 -1.151233e-001 -4.563527e-002 -3.571823e-002 5.910263e-003 6.970533e-002 4.805334e-002 -1.844652e-002 2.164474e-002 4.826903e-002 7.981013e-002 -7.187997e-002 -4.235870e-002 -6.989315e-003 -1.215029e-002
<VARIANCE> 39
 1.260029e+001 4.525448e+000 7.686946e+000 2.107699e+001 1.142189e+001 1.327757e+001 1.404769e+001 2.506607e+001 4.058877e+001 2.602435e+001 2.203385e+001 2.239691e+001 4.446038e+000 2.053549e-001 2.719008e-001 5.142069e-001 7.208983e-001 7.307899e-001 1.133122e+000 8.066409e-001 1.391114e+000 2.084438e+000 1.594342e+000 1.723397e+000 1.162932e+000 1.761999e-001 4.078116e-002 4.021576e-002 8.014454e-002 1.179834e-001 1.313794e-001 1.900747e-001 1.512709e-001 2.538804e-001 3.360446e-001 3.169206e-001 3.085941e-001 2.082851e-001 1.494442e-002
<GCONST> 7.534753e+001
<STATE> 5
<MEAN> 39
 1.247246e+000 2.705445e+000 -6.063326e+000 -1.707851e+001 -1.094822e+001 -7.266885e+000 -8.726320e-001 -9.590379e+000 -1.178258e+001 -9.145224e+000 -5.992193e+000 -5.378461e+000 5.671719e+001 -7.803518e-001 1.499195e-001 4.197888e-001 7.311629e-001 4.824005e-001 -4.250662e-004 4.918544e-002 2.175340e-001 4.344638e-001 2.629638e-001 5.940033e-002 -1.059624e-001 -8.812965e-001 -6.553692e-002 -6.961601e-002 3.903190e-002 6.316130e-002 8.246167e-002 1.780115e-002 -1.006596e-002 -4.658917e-003 -4.443365e-002 -6.501031e-002 1.608771e-002 3.642708e-002 4.399721e-002
<VARIANCE> 39
 5.964841e+001 2.134938e+001 4.510848e+001 6.206448e+001 3.124379e+001 4.107428e+001 4.865400e+001 4.530021e+001 5.023454e+001 4.610878e+001 3.181949e+001 4.704451e+001 4.594027e+001 1.636409e+000 1.015119e+000 1.908706e+000 2.004074e+000 1.797036e+000 2.152031e+000 2.449874e+000 3.468643e+000 2.389395e+000 2.846145e+000 2.399731e+000 1.856157e+000 1.105278e+000 1.723364e-001 1.163329e-001 3.472962e-001 2.917090e-001 2.672074e-001 4.278666e-001 4.182001e-001 5.467441e-001 3.947235e-001 5.559246e-001 4.243802e-001 3.649674e-001 9.788762e-002
<GCONST> 1.138087e+002
<TRANSP> 6
 0.000000e+000 9.483770e-001 5.162296e-002 0.000000e+000 0.000000e+000 0.000000e+000
 0.000000e+000 8.655844e-001 1.344156e-001 1.134714e-030 0.000000e+000 0.000000e+000
 0.000000e+000 0.000000e+000 8.958159e-001 1.041841e-001 0.000000e+000 0.000000e+000
 0.000000e+000 0.000000e+000 0.000000e+000 8.934429e-001 5.862685e-002 4.793033e-002
 0.000000e+000 0.000000e+000 0.000000e+000 0.000000e+000 9.267526e-001 7.324741e-002
 0.000000e+000 0.000000e+000 0.000000e+000 0.000000e+000 0.000000e+000 0.000000e+000
<ENDHMM>
~h "gao_1"
<BEGINHMM>
<NUMSTATES> 6
<STATE> 2
<MEAN> 39
 -5.808743e+000 -1.292996e+001 -1.373974e+001 -1.628201e+001 2.757632e+000 -1.507128e+000 -3.583725e+000 -6.510197e+000 -2.042034e+000 1.075944e-001 -1.105118e+000 -6.480419e+000 7.686324e+001 5.361732e-001 1.898609e-001 1.706004e-001 -7.137682e-001 -2.252117e-001 6.705028e-001 4.958869e-002 -4.921171e-001 -6.706599e-001 -3.407673e-001 -3.943185e-001 -8.800889e-001 5.260041e-001 -1.003408e-002 5.984726e-003 -6.089410e-002 1.352057e-001 8.340961e-002 1.300097e-001 2.887473e-002 2.022786e-002 -3.223908e-003 -1.417878e-001 -3.328378e-002 9.375745e-002 -1.677561e-001
<VARIANCE> 39
 4.241261e+001 4.252457e+001 3.608813e+001 6.921090e+001 5.944696e+001 1.127089e+002 7.127543e+001 5.373136e+001 7.028629e+001 3.152831e+001 4.754945e+001 7.171364e+001 9.044913e+001 1.585959e+000 2.036945e+000 3.895180e+000 3.422537e+000 4.410807e+000 1.162957e+001 8.086275e+000 6.055362e+000 3.454255e+000 3.962467e+000 3.871013e+000 5.094193e+000 2.998099e+000 2.149816e-001 3.453293e-001 5.073910e-001 5.294703e-001 8.410636e-001 1.461339e+000 1.304777e+000 9.959953e-001 6.498008e-001 7.122810e-001 6.537836e-001 8.579763e-001 2.554502e-001
<GCONST> 1.365288e+002
<STATE> 3
<MEAN> 39
 -4.514503e+000 -9.161895e+000 -1.267107e+001 -2.235197e+001 -5.233656e-001 9.497368e+000 5.005164e+000 -1.764113e+001 -5.967785e+000 -6.368728e+000 -2.978047e+000 -4.360898e+000 7.346965e+001 7.548186e-002 3.888744e-001 -1.484838e-002 -5.078915e-001 -2.723611e-001 7.715320e-003 -1.207994e-001 2.122318e-001 3.690498e-002 1.186395e-001 8.858103e-002 6.066211e-001 -1.339306e-001 2.642225e-003 6.364573e-002 4.621496e-002 5.460498e-002 -6.027327e-002 -1.820599e-001 -1.034266e-001 4.089557e-002 2.399937e-002 7.464793e-002 -2.602974e-002 -1.368962e-002 -3.868055e-002
<VARIANCE> 39
 2.359422e+000 2.606344e+001 2.835268e+001 3.438885e+001 6.319287e+001 3.899195e+001 6.718068e+001 5.391978e+001 2.294451e+001 3.280651e+001 3.045474e+001 8.536830e+001 6.255872e+000 1.172429e-001 5.890070e-001 5.087760e-001 8.810139e-001 1.616122e+000 1.920290e+000 1.257932e+000 1.535714e+000 1.504476e+000 1.494372e+000 1.131896e+000 1.200868e+000 1.507696e-001 2.085570e-002 7.275250e-002 9.638844e-002 1.006360e-001 1.921763e-001 2.259716e-001 2.340965e-001 2.504742e-001 2.413705e-001 2.812743e-001 1.799308e-001 2.030562e-001 1.352551e-002
<GCONST> 8.514227e+001
<STATE> 4
<MEAN> 39
 1.022023e+001 -8.156253e+000 -1.415747e+001 -1.835851e+001 1.368940e+001 2.484291e+001 2.727729e+000 -4.964594e+000 -1.157156e+001 -6.736924e+000 -6.058018e+000 -5.225882e+000 6.364464e+001 -4.263237e-001 4.688346e-001 -7.837284e-001 4.612380e-001 1.260548e-001 4.782518e-001 1.052157e+000 7.478119e-002 2.428420e-002 -6.667738e-001 -7.688117e-002 4.024245e-001 -1.452381e+000 -7.300705e-002 1.039623e-002 2.214012e-002 5.189825e-002 -8.492085e-003 -1.032363e-001 4.056561e-002 -5.018651e-002 -2.914491e-002 1.189246e-002 9.587873e-002 1.929055e-002 -2.759490e-002
<VARIANCE> 39
 2.102927e+001 1.318823e+001 1.007624e+002 7.005399e+001 3.143630e+001 8.784386e+001 1.321544e+002 1.506537e+001 1.695037e+001 4.780359e+001 1.266785e+001 2.918573e+001 1.246320e+002 1.008038e+000 7.791567e-001 2.567008e+000 2.565600e+000 2.082872e+000 2.177888e+000 2.749199e+000 1.581398e+000 2.877195e+000 2.663442e+000 2.060725e+000 2.298931e+000 4.910997e-001 1.384427e-001 1.465451e-001 3.307380e-001 3.069608e-001 3.199310e-001 3.829760e-001 4.809892e-001 3.419230e-001 5.398664e-001 4.563061e-001 3.402328e-001 4.683656e-001 6.973398e-002
<GCONST> 1.106354e+002
<STATE> 5
<MEAN> 39
 -1.804705e+000 -1.415649e+000 -9.528980e+000 -1.632530e+001 -3.396286e+000 -3.558977e+000 -6.399280e+000 -1.174520e+001 -8.059600e+000 -3.021128e+000 -4.371897e-001 -3.006221e+000 6.678464e+001 -2.676620e-001 4.907736e-002 4.584359e-001 1.104317e+000 4.555056e-001 -1.336047e-001 -5.324573e-001 3.010833e-002 -8.554354e-002 -1.869790e-001 2.322099e-001 -4.038310e-001 -7.044652e-001 -8.399650e-002 -1.245970e-001 -4.615604e-002 -2.671547e-002 1.433664e-001 1.815474e-001 1.871992e-001 1.350352e-001 3.388708e-002 -5.694254e-002 3.257975e-002 -2.214078e-002 -1.674228e-002
<VARIANCE> 39
 9.827512e+000 1.732701e+001 8.771900e+001 7.802898e+001 4.397396e+001 6.807710e+001 9.093153e+001 5.046542e+001 4.332086e+001 5.831231e+001 3.557073e+001 3.836000e+001 2.979414e+001 4.028543e-001 6.893933e-001 8.986905e-001 1.887963e+000 2.209946e+000 3.264820e+000 3.932389e+000 4.139217e+000 2.374230e+000 3.184878e+000 3.803790e+000 1.758542e+000 3.398623e-001 4.078097e-002 8.194888e-002 1.426138e-001 3.248301e-001 3.252147e-001 4.604346e-001 4.883856e-001 5.849357e-001 5.058109e-001 6.189812e-001 7.375327e-001 2.691952e-001 4.651596e-002
<GCONST> 1.096156e+002
<TRANSP> 6
 0.000000e+000 9.503767e-001 4.962327e-002 0.000000e+000 0.000000e+000 0.000000e+000
 0.000000e+000 9.211647e-001 3.732825e-002 4.150709e-002 0.000000e+000 0.000000e+000
 0.000000e+000 0.000000e+000 9.517309e-001 0.000000e+000 4.826912e-002 0.000000e+000
 0.000000e+000 0.000000e+000 0.000000e+000 9.166480e-001 8.335195e-002 0.000000e+000
 0.000000e+000 0.000000e+000 0.000000e+000 0.000000e+000 8.618941e-001 1.381059e-001
 0.000000e+000 0.000000e+000 0.000000e+000 0.000000e+000 0.000000e+000 0.000000e+000
<ENDHMM>
~h "ha_1"
<BEGINHMM>
<NUMSTATES> 6
<STATE> 2
<MEAN> 39
 -7.233284e+000 -1.844760e+001 -1.099604e+001 -1.093427e+001 1.037923e+001 9.897866e+000 -1.710737e+000 -1.132348e+001 -3.754046e+000 -7.374269e+000 1.942418e+000 -4.556180e+000 7.000491e+001 6.887887e-001 -2.804955e-001 -1.079927e-001 -5.038349e-001 -1.697560e-002 -4.050412e-002 1.533783e-001 -2.797653e-001 -4.325836e-001 -3.127078e-001 -3.144612e-001 -6.545154e-001 1.772714e+000 -3.602674e-002 1.106915e-001 -4.491504e-002 -3.166598e-003 1.648505e-002 -7.682703e-002 -2.902288e-003 2.144643e-002 -3.802896e-002 9.551891e-002 -3.919378e-002 1.118898e-002 -2.667136e-002
<VARIANCE> 39
 5.264935e+001 6.866872e+001 5.885985e+001 3.106054e+001 1.806278e+002 9.687398e+001 7.491054e+001 5.374681e+001 5.199174e+001 4.517877e+001 3.282662e+001 6.055026e+001 6.039422e+001 3.425339e+000 3.398312e+000 4.402174e+000 2.304567e+000 3.260795e+000 3.088735e+000 4.222695e+000 5.169860e+000 4.198524e+000 4.148956e+000 2.309713e+000 2.609098e+000 2.544335e+000 5.455778e-001 4.874487e-001 5.506123e-001 3.543572e-001 4.751113e-001 4.924534e-001 7.062190e-001 8.199424e-001 6.294551e-001 5.834458e-001 3.875740e-001 3.833758e-001 2.790416e-001
<GCONST> 1.315189e+002
<STATE> 3
<MEAN> 39
 -1.571820e+001 -2.118544e+001 -1.367914e+001 -8.575806e+000 9.147996e+000 6.298798e-001 -7.182910e+000 -7.872608e+000 1.776047e+000 -7.389866e+000 -4.138696e+000 -1.557745e+000 9.159212e+001 -3.217463e-001 1.101462e-001 -6.747912e-003 4.950481e-002 2.332538e-001 -1.565572e-001 3.391899e-001 5.997761e-002 -3.900984e-002 -1.897182e-002 -1.682402e-001 -1.080475e-001 4.438353e-001 8.515057e-002 -8.675866e-002 9.939642e-002 9.155243e-002 -1.731124e-001 -3.166889e-002 4.656420e-002 1.735167e-002 4.184325e-003 -3.162341e-002 6.805056e-002 2.475011e-003 -2.499473e-001
<VARIANCE> 39
 5.588495e+000 8.268986e+000 2.656010e+000 6.372736e+000 9.920711e+000 1.309231e+001 2.358136e+001 1.502823e+001 7.592662e+000 1.418561e+001 4.455373e+001 7.610909e+000 1.324922e+000 1.007846e+000 6.911306e-001 4.658684e-001 1.197909e+000 1.819378e+000 1.750099e+000 2.137190e+000 1.900849e+000 1.153949e+000 1.906762e+000 3.618431e+000 6.620953e-001 1.163278e+000 1.543980e-001 1.496908e-001 1.257367e-001 2.936930e-001 5.156213e-001 3.886544e-001 3.950130e-001 3.995648e-001 1.935639e-001 3.639283e-001 5.967536e-001 1.466091e-001 2.909030e-001
<GCONST> 8.644817e+001
<STATE> 4
<MEAN> 39
 -3.129080e+000 -1.552751e+001 -1.307644e+001 -1.448229e+001 4.892958e+000 6.051314e+000 2.619190e+000 -1.417419e+001 -9.999798e+000 -5.167334e+000 -4.004897e+000 -1.314977e+001 7.653627e+001 8.790629e-002 -1.970936e-002 4.676720e-002 4.481376e-002 -1.650914e-001 2.918546e-002 2.930989e-002 1.949340e-001 -3.564496e-002 9.022503e-002 -1.504413e-001 1.284226e-001 -1.619418e-001 -1.011225e-002 3.271961e-002 7.071669e-003 4.301234e-002 -3.449864e-003 1.089223e-002 -4.440792e-004 -4.784371e-003 3.738814e-002 -1.443260e-002 -1.843948e-002 2.497232e-002 -6.763699e-002
<VARIANCE> 39
 1.490242e+001 9.608118e+000 2.910756e+001 1.168391e+001 4.908200e+001 2.729603e+001 7.440512e+001 4.986945e+001 2.346328e+001 2.557524e+001 1.901508e+001 3.219717e+001 1.112515e+001 2.242136e-001 4.750253e-001 4.672666e-001 6.410489e-001 7.021836e-001 7.540053e-001 7.425178e-001 8.872019e-001 8.637381e-001 9.452949e-001 8.440657e-001 5.328541e-001 1.373503e-001 3.877729e-002 8.825815e-002 7.992934e-002 1.044462e-001 1.131757e-001 1.814291e-001 1.196771e-001 1.789086e-001 1.450531e-001 1.560378e-001 1.672494e-001 9.931751e-002 2.176432e-002
<GCONST> 7.572160e+001
<STATE> 5
<MEAN> 39
 7.443519e+000 -1.559091e+001 -1.348323e+001 -1.196095e-001 1.796882e+001 1.263187e+001 -1.122361e+000 -8.795542e+000 -1.133805e+001 -7.359920e+000 -3.750325e+000 -6.751541e+000 6.368391e+001 -5.904207e-001 3.262410e-001 -5.366893e-001 7.968313e-001 5.291545e-001 2.183051e-001 6.078964e-002 2.576924e-001 4.295669e-001 -2.729868e-003 1.250804e-001 9.562670e-002 -1.471702e+000 -1.240024e-001 2.981026e-002 -1.402204e-002 -5.187497e-002 -2.639074e-003 -6.478018e-004 9.573665e-002 6.358739e-002 2.434884e-004 -2.489787e-002 8.405033e-002 2.268054e-003 -5.792762e-003
<VARIANCE> 39
 6.141554e+001 2.237273e+001 5.678767e+001 1.331628e+002 1.302317e+002 3.984060e+001 6.007276e+001 3.429686e+001 3.716312e+001 4.063057e+001 2.638148e+001 3.108768e+001 8.573819e+001 8.752984e-001 1.053231e+000 2.187777e+000 3.816408e+000 1.651559e+000 1.683631e+000 2.503245e+000 3.289315e+000 1.791797e+000 2.663158e+000 2.887549e+000 1.576564e+000 3.025162e-001 7.896299e-002 1.345917e-001 2.357441e-001 3.966311e-001 2.669782e-001 2.867301e-001 4.711220e-001 4.336759e-001 3.480120e-001 3.302408e-001 4.064966e-001 2.766918e-001 4.927928e-002
<GCONST> 1.111229e+002
<TRANSP> 6
 0.000000e+000 1.000000e+000 0.000000e+000 0.000000e+000 0.000000e+000 0.000000e+000
 0.000000e+000 9.021845e-001 2.445387e-002 7.336163e-002 0.000000e+000 0.000000e+000
 0.000000e+000 0.000000e+000 9.324332e-001 6.756680e-002 0.000000e+000 0.000000e+000
 0.000000e+000 0.000000e+000 0.000000e+000 9.087446e-001 4.562817e-002 4.562717e-002
 0.000000e+000 0.000000e+000 0.000000e+000 0.000000e+000 9.250183e-001 7.498167e-002
 0.000000e+000 0.000000e+000 0.000000e+000 0.000000e+000 0.000000e+000 0.000000e+000
<ENDHMM>
~h "hai_3"
<BEGINHMM>
<NUMSTATES> 6
<STATE> 2
<MEAN> 39
 -1.067284e+001 -1.656426e+001 -8.839987e+000 -7.753293e+000 1.557959e+001 5.463203e+000 1.012380e+000 -1.150739e+001 9.773051e-001 -7.075087e+000 1.325377e+000 -7.089168e+000 7.125568e+001 3.501741e-001 -6.388075e-001 -3.032324e-001 -3.065150e-001 -2.623119e-001 -1.103503e-001 1.244893e+000 -6.688114e-001 -1.913755e-001 -5.121570e-001 -2.786478e-001 -4.413718e-001 1.383219e+000 1.059893e-001 5.476847e-002 -5.714439e-002 8.524645e-002 -3.116852e-002 -3.686879e-002 3.001035e-002 3.737002e-002 -8.388615e-002 1.229743e-001 -1.335068e-002 8.254755e-002 -1.189651e-001
<VARIANCE> 39
 2.202726e+001 1.045357e+002 4.543216e+001 2.769505e+001 1.839881e+002 3.232530e+001 7.953690e+001 5.836870e+001 3.520679e+001 6.313297e+001 2.783662e+001 5.953171e+001 6.555956e+001 1.961574e+000 2.911697e+000 4.127018e+000 2.492220e+000 3.075671e+000 2.089113e+000 3.140362e+000 3.494657e+000 2.666735e+000 4.062733e+000 1.879868e+000 1.947077e+000 3.707422e+000 3.189137e-001 4.917107e-001 6.347483e-001 4.223866e-001 5.679404e-001 3.620875e-001 5.828605e-001 6.560855e-001 4.593683e-001 5.473010e-001 3.136931e-001 3.194751e-001 2.350151e-001
<GCONST> 1.254710e+002
<STATE> 3
<MEAN> 39
 -6.705628e+000 -2.419629e+001 -1.007204e+001 -5.464796e+000 3.149234e+000 -8.347080e-001 -3.784778e+000 -8.062982e+000 -6.258636e+000 -1.269107e+001 -4.440409e+000 -1.236542e+000 8.111813e+001 4.034151e-001 -7.123119e-002 1.993727e-001 4.051757e-002 -6.155911e-001 2.811815e-002 4.105166e-001 3.721105e-001 -6.473074e-001 3.516944e-001 -8.982872e-002 6.489976e-001 1.307489e-001 -5.758551e-002 4.553670e-002 5.625174e-002 -7.285260e-002 -2.529682e-002 -1.706745e-002 -4.580592e-002 1.165898e-002 9.951176e-003 -1.168705e-001 -7.274344e-002 -1.266945e-001 -8.173204e-002
<VARIANCE> 39
 3.828260e+001 2.059570e+001 3.659835e+001 2.150180e+001 7.940833e+001 4.297943e+001 8.236276e+001 2.567310e+001 4.234523e+001 4.727314e+001 2.952466e+001 6.239905e+001 1.936905e+001 3.316430e+000 1.580158e+000 2.976089e+000 1.718198e+000 2.265406e+000 1.589940e+000 3.398138e+000 1.986719e+000 4.363476e+000 2.524900e+000 3.220646e+000 2.430076e+000 9.357878e-001 4.163958e-001 2.716393e-001 5.249873e-001 2.667274e-001 3.707724e-001 2.740668e-001 4.100297e-001 3.061923e-001 4.315371e-001 3.209234e-001 4.211666e-001 4.048199e-001 1.190744e-001
<GCONST> 1.153807e+002
<STATE> 4
<MEAN> 39
 -2.861868e+000 -1.772611e+001 -7.079147e+000 -1.031584e+001 6.030108e+000 1.103643e-001 5.518712e+000 -6.421677e+000 -1.011769e+001 -7.092986e+000 -6.297495e+000 -6.283139e+000 7.644572e+001 -8.848368e-002 -5.044731e-002 3.929277e-001 -1.621483e-001 -5.441632e-001 -3.759202e-001 -1.757907e-002 5.398930e-001 -4.534071e-002 -1.943530e-001 -2.741489e-001 9.146990e-002 -1.171169e-001 3.893887e-004 5.052947e-002 1.388820e-002 -7.433579e-003 -8.004764e-002 -4.895220e-002 -4.787533e-002 1.048023e-002 4.714750e-002 2.130683e-002 5.276468e-002 8.208307e-003 -4.757326e-002
<VARIANCE> 39
 4.300154e+001 3.932853e+001 4.547683e+001 3.377296e+001 5.414566e+001 2.900695e+001 1.093957e+002 9.503499e+001 1.006328e+002 3.997425e+001 2.254850e+001 4.797246e+001 8.200052e+000 2.358492e-001 3.842734e-001 6.739266e-001 8.766045e-001 1.602301e+000 9.283794e-001 6.274632e-001 1.079740e+000 9.248711e-001 1.027766e+000 7.614672e-001 8.383365e-001 2.095230e-001 4.124634e-002 6.788434e-002 1.200302e-001 1.690573e-001 1.556069e-001 1.252514e-001 1.416858e-001 1.875285e-001 1.433698e-001 2.026933e-001 1.539484e-001 1.406335e-001 2.856504e-002
<GCONST> 8.719564e+001
<STATE> 5
<MEAN> 39
 -3.379149e-001 -2.050816e+001 -5.368432e+000 -6.525074e+000 -2.479110e+000 -1.891251e+000 4.402538e+000 1.174449e+000 -1.306760e+001 -1.313939e+001 -7.532887e+000 -5.861501e+000 6.936645e+001 -2.093908e-001 5.982850e-001 -8.070581e-002 6.783927e-001 7.255833e-002 -8.401534e-002 -1.228046e-001 2.302638e-001 3.718446e-001 3.373513e-002 3.517928e-001 1.366343e-002 -1.171093e+000 -2.488074e-002 6.874415e-003 -5.011225e-002 4.636573e-002 1.375268e-001 4.228623e-002 -8.621283e-003 -4.337727e-002 6.379640e-002 5.079564e-002 -1.437410e-002 -2.193275e-003 -2.966008e-002
<VARIANCE> 39
 5.047486e+001 8.106269e+001 4.238531e+001 4.898198e+001 8.801141e+001 6.572535e+001 6.054011e+001 6.354879e+001 1.461891e+002 6.084706e+001 4.837916e+001 4.055286e+001 5.687108e+001 6.897811e-001 1.430568e+000 2.539112e+000 1.940263e+000 3.041064e+000 2.459715e+000 3.059118e+000 2.345585e+000 2.636912e+000 2.582158e+000 1.828057e+000 2.318477e+000 1.085352e+000 9.932427e-002 2.098099e-001 3.509665e-001 2.933802e-001 4.096461e-001 3.096217e-001 4.154283e-001 3.992639e-001 5.057053e-001 4.406751e-001 2.850746e-001 3.329144e-001 1.230237e-001
<GCONST> 1.183173e+002
<TRANSP> 6
 0.000000e+000 7.500142e-001 2.499858e-001 0.000000e+000 0.000000e+000 0.000000e+000
 0.000000e+000 9.188610e-001 8.113903e-002 0.000000e+000 0.000000e+000 0.000000e+000
 0.000000e+000 0.000000e+000 8.830022e-001 1.169977e-001 0.000000e+000 0.000000e+000
 0.000000e+000 0.000000e+000 0.000000e+000 9.203882e-001 7.165182e-002 7.960046e-003
 0.000000e+000 0.000000e+000 0.000000e+000 0.000000e+000 9.296771e-001 7.032286e-002
 0.000000e+000 0.000000e+000 0.000000e+000 0.000000e+000 0.000000e+000 0.000000e+000
<ENDHMM>
~h "hang_2"
<BEGINHMM>
<NUMSTATES> 6
<STATE> 2
<MEAN> 39
 -9.216110e+000 -1.497639e+001 -1.099999e+001 -1.730087e+001 1.294167e+001 1.219563e+001 -1.283793e+000 -1.149244e+001 -9.540004e-001 -8.487092e+000 2.716957e+000 -5.501652e+000 7.429951e+001 5.804750e-001 1.122038e-001 -1.162689e-001 -7.961056e-001 4.054783e-002 3.385564e-002 1.590347e-001 -2.884923e-001 -5.490417e-001 -5.055228e-001 -2.778952e-001 -2.886967e-001 1.237450e+000 1.033130e-001 5.361840e-002 -2.323951e-002 4.554007e-002 -4.410856e-002 -1.697006e-001 -2.112822e-002 7.108824e-002 -1.162230e-001 1.553002e-001 -4.181691e-002 2.651317e-002 -1.405034e-001
<VARIANCE> 39
 3.728328e+001 3.281125e+001 4.001836e+001 3.575868e+001 1.704589e+002 8.767094e+001 7.449363e+001 4.299662e+001 5.430518e+001 5.818474e+001 4.727427e+001 5.726354e+001 8.526352e+001 3.710096e+000 1.634716e+000 2.858519e+000 3.006811e+000 2.424567e+000 3.756759e+000 2.986485e+000 3.991264e+000 5.262734e+000 4.040851e+000 3.515245e+000 2.659236e+000 2.820060e+000 4.992355e-001 2.721061e-001 4.501072e-001 5.011318e-001 4.237718e-001 5.830678e-001 5.879817e-001 6.126989e-001 6.933584e-001 5.487379e-001 5.935185e-001 4.801888e-001 2.564518e-001
<GCONST> 1.296276e+002
<STATE> 3
<MEAN> 39
 -4.874868e+000 -9.098358e+000 -1.275952e+001 -2.628672e+001 1.347112e+001 8.332299e+000 5.257676e-001 -1.945340e+001 -6.527200e+000 -5.930462e+000 -3.988569e+000 -1.477159e+000 7.708152e+001 8.397616e-002 2.490768e-001 -3.386772e-002 -4.853172e-002 -7.711475e-004 -2.270775e-002 -1.228628e-001 -4.908039e-002 -2.256612e-001 4.921315e-002 -1.285039e-002 -3.342608e-002 -9.470296e-002 1.036712e-002 8.635874e-002 5.767620e-002 1.428738e-001 -1.052968e-001 1.096409e-002 8.861950e-003 3.134308e-002 -4.370451e-002 -6.906337e-002 2.091295e-002 -1.649187e-002 -7.495921e-002
<VARIANCE> 39
 3.116471e+000 9.368357e+000 1.278760e+001 1.516259e+001 1.782473e+001 1.161926e+001 9.620986e+000 8.551931e+000 7.385569e+000 5.133482e+000 5.515233e+000 8.499207e+000 2.253215e+000 9.594116e-002 5.896751e-001 4.447711e-001 7.402270e-001 1.239511e+000 1.018385e+000 8.149081e-001 6.169180e-001 5.410708e-001 4.974427e-001 7.029906e-001 6.715789e-001 1.699499e-001 2.236221e-002 4.737259e-002 1.162390e-001 1.173685e-001 1.625582e-001 1.781235e-001 1.401958e-001 1.087954e-001 9.154263e-002 9.690711e-002 1.322652e-001 1.177984e-001 1.391396e-002
<GCONST> 5.805265e+001
<STATE> 4
<MEAN> 39
 1.745028e+000 -1.027147e+001 -9.836509e+000 -1.835024e+001 5.867571e+000 -1.282280e+000 -3.368286e+000 -9.282898e+000 -1.475911e+001 -7.334687e+000 -2.492739e+000 -6.419544e+000 7.347002e+001 5.394023e-001 6.023616e-001 4.433874e-001 8.442401e-001 -6.074530e-001 -9.155098e-001 -5.156074e-001 -1.865264e-001 -3.339733e-001 -1.371487e-001 -5.596945e-001 2.613795e-001 -9.403054e-001 -7.208923e-002 3.935863e-002 4.105595e-002 1.779864e-001 -1.967313e-002 2.435754e-001 6.373929e-002 -2.330136e-001 2.276376e-001 -1.270387e-001 -1.021597e-001 -7.613410e-002 -3.302355e-002
<VARIANCE> 39
 5.853602e+001 1.517877e+001 3.572725e+001 2.120229e+001 1.702915e+002 1.263299e+002 1.072773e+002 8.459550e+001 2.680561e+001 5.222369e+001 3.614828e+001 3.036935e+001 2.287282e+001 7.807058e-001 6.749154e-001 1.863705e+000 1.598252e+000 2.281022e+000 2.494182e+000 2.128222e+000 3.271203e+000 1.913606e+000 1.671036e+000 2.569163e+000 2.323224e+000 3.135320e-001 1.489766e-001 1.309731e-001 2.757359e-001 2.769840e-001 4.204295e-001 4.619021e-001 4.018089e-001 4.201906e-001 2.870008e-001 3.239531e-001 4.850761e-001 4.064855e-001 5.729270e-002
<GCONST> 1.106953e+002
<STATE> 5
<MEAN> 39
 2.890956e+000 -1.949503e-001 -4.236733e+000 -5.730399e+000 6.361820e+000 3.907409e+000 -3.866295e+000 -1.259823e+001 -1.352318e+001 -1.445287e+001 -9.734844e+000 -6.657897e+000 6.367271e+001 -4.206463e-001 4.376219e-001 3.079659e-001 7.977288e-001 -9.297459e-002 -1.017377e-003 4.173600e-002 -7.228206e-003 1.284631e-001 -3.739557e-001 -4.863741e-001 -3.903132e-001 -7.860156e-001 -1.156232e-001 -1.209867e-001 -5.366891e-002 -1.366373e-001 5.510182e-002 -1.658079e-002 -9.546959e-003 1.144960e-001 -2.214749e-002 5.301806e-002 1.131231e-001 3.833240e-002 3.464740e-002
<VARIANCE> 39
 6.581396e+001 2.331662e+001 6.725736e+001 6.460680e+001 1.307173e+002 9.753664e+001 7.401777e+001 9.338657e+001 2.711379e+001 7.429894e+001 3.879871e+001 2.759271e+001 4.707772e+001 8.182314e-001 1.096876e+000 1.184798e+000 1.950083e+000 1.952633e+000 2.518551e+000 2.806175e+000 1.936815e+000 2.104879e+000 1.912425e+000 1.984571e+000 1.431084e+000 3.792204e-001 7.908059e-002 1.591731e-001 1.425240e-001 1.985771e-001 2.499634e-001 3.425261e-001 3.465450e-001 2.670424e-001 3.145721e-001 2.668709e-001 2.203518e-001 2.524495e-001 1.987157e-002
<GCONST> 1.075392e+002
<TRANSP> 6
 0.000000e+000 1.000000e+000 0.000000e+000 0.000000e+000 0.000000e+000 0.000000e+000
 0.000000e+000 9.288455e-001 1.778863e-002 5.336590e-002 0.000000e+000 0.000000e+000
 0.000000e+000 0.000000e+000 9.563181e-001 4.368187e-002 0.000000e+000 0.000000e+000
 0.000000e+000 0.000000e+000 0.000000e+000 8.899202e-001 1.100798e-001 0.000000e+000
 0.000000e+000 0.000000e+000 0.000000e+000 0.000000e+000 9.176179e-001 8.238209e-002
 0.000000e+000 0.000000e+000 0.000000e+000 0.000000e+000 0.000000e+000 0.000000e+000
<ENDHMM>
~h "huo_3"
<BEGINHMM>
<NUMSTATES> 6
<STATE> 2
<MEAN> 39
 -7.078078e-001 -3.720418e+000 -1.198286e+001 -2.276044e+001 -6.682933e+000 2.620324e+000 9.770493e-003 -2.979544e-001 1.021124e+000 -8.624247e+000 9.243084e+000 -3.594458e+000 6.298418e+001 9.947988e-001 7.573674e-001 3.954979e-001 -1.529171e-001 -6.423074e-001 -5.974717e-001 -7.931060e-001 -7.874967e-001 -6.545971e-001 -6.326863e-001 -4.265483e-001 4.153636e-002 8.334581e-001 4.826263e-002 6.689829e-002 2.056393e-002 -2.370352e-002 -9.459675e-002 -8.574105e-002 -3.116490e-002 8.281191e-003 -3.312904e-002 8.752768e-002 -1.614762e-001 2.403248e-002 1.433977e-002
<VARIANCE> 39
 7.613538e+001 9.700874e+001 1.013360e+002 2.479776e+002 4.902704e+001 1.025065e+002 1.136280e+002 5.452779e+001 5.465340e+001 1.043945e+002 1.294192e+002 3.132582e+001 6.106048e+001 3.584397e+000 5.560381e+000 4.331675e+000 6.621114e+000 3.352537e+000 5.011971e+000 6.432421e+000 4.859271e+000 5.709822e+000 3.783363e+000 1.027467e+001 2.680890e+000 2.065001e+000 5.831490e-001 8.821635e-001 6.791573e-001 9.566467e-001 5.507928e-001 9.158900e-001 1.036911e+000 8.882703e-001 9.949687e-001 5.924976e-001 1.085425e+000 4.745236e-001 3.204440e-001
<GCONST> 1.445724e+002
<STATE> 3
<MEAN> 39
 9.057855e+000 3.698132e+000 -9.019695e+000 -2.511781e+001 -1.608046e+001 -9.036235e-001 3.552199e+000 -6.016521e+000 -7.844045e+000 -1.037803e+001 -5.221603e+000 -9.855053e-001 6.789792e+001 -7.987792e-002 -6.876187e-001 -5.423983e-001 -3.434813e-001 1.213610e-001 7.025111e-001 7.699220e-001 -3.845996e-001 -1.866735e-001 3.078884e-001 1.124465e-001 4.760100e-001 4.777745e-001 -1.440593e-001 -1.114047e-001 2.742362e-002 1.145077e-001 2.100122e-001 1.413437e-001 -9.311145e-003 5.742437e-002 1.813416e-001 8.446729e-002 1.738417e-001 -1.087729e-001 -5.229432e-002
<VARIANCE> 39
 9.626746e+001 3.731713e+001 3.358633e+001 3.987764e+001 3.476775e+001 6.997755e+001 8.804839e+001 2.718381e+001 4.942468e+001 4.073557e+001 3.237132e+001 2.476949e+001 2.729623e+001 7.464752e-001 1.423784e+000 1.055217e+000 2.853045e+000 2.981081e+000 4.028979e+000 2.866230e+000 2.054037e+000 1.761439e+000 2.170890e+000 1.900091e+000 1.346508e+000 8.924341e-001 1.441247e-001 2.264335e-001 1.734928e-001 3.467112e-001 3.705590e-001 6.561175e-001 5.552323e-001 3.237500e-001 3.339339e-001 3.775543e-001 2.411923e-001 2.818188e-001 1.069598e-001
<GCONST> 1.114724e+002
<STATE> 4
<MEAN> 39
 -3.846223e+000 2.494526e+000 -9.896671e+000 -2.181132e+001 -8.224208e+000 3.862874e+000 -2.165351e+000 -1.197711e+001 -3.614942e+000 -9.868564e+000 1.039640e+000 7.938004e+000 7.060030e+001 -1.506224e-001 -2.378844e-001 -3.129946e-001 -3.482169e-002 2.836165e-001 5.169592e-001 2.603476e-001 -5.032606e-001 -1.514101e-002 7.415417e-002 -4.618760e-003 5.365822e-002 9.840198e-002 -1.161542e-002 -2.174116e-002 1.853576e-002 1.084436e-001 4.352795e-002 -7.433351e-002 -4.991515e-002 -1.833005e-002 3.239405e-002 8.044551e-002 -4.779902e-002 -1.200279e-001 -1.754342e-002
<VARIANCE> 39
 2.436161e+000 7.222208e+000 1.061675e+001 1.670115e+001 1.154429e+001 4.576456e+001 1.836443e+001 3.217601e+001 1.256150e+001 1.666042e+001 7.287452e+000 1.888816e+001 1.287531e+000 1.182765e-001 2.232642e-001 4.444003e-001 1.162424e+000 5.436816e-001 8.224932e-001 7.028518e-001 1.496421e+000 9.175506e-001 1.805802e+000 7.135663e-001 1.425085e+000 4.855961e-002 2.489191e-002 4.762415e-002 9.507650e-002 1.481870e-001 8.223454e-002 1.249781e-001 1.116938e-001 2.674689e-001 1.764211e-001 3.018255e-001 1.498125e-001 1.389551e-001 8.891289e-003
<GCONST> 6.472691e+001
<STATE> 5
<MEAN> 39
 2.888351e+000 -7.593544e+000 -1.439532e+001 -1.714218e+001 7.769939e-001 6.670289e+000 7.521900e-001 -7.923171e+000 -4.338694e+000 -5.078302e+000 -3.012850e+000 -3.159245e+000 6.762969e+001 -3.533543e-001 -1.710644e-001 2.261072e-001 1.097525e+000 5.215726e-001 -7.002200e-001 -3.822960e-001 6.197739e-001 5.756038e-001 3.011330e-001 -7.684052e-002 -4.885907e-001 -9.443317e-001 1.286964e-002 1.161531e-001 7.363322e-002 1.071623e-002 -7.248373e-002 -2.528770e-002 1.252604e-002 6.257036e-002 -1.234726e-001 -2.192251e-001 -4.287609e-003 8.615007e-002 -8.874768e-002
<VARIANCE> 39
 5.537105e+001 2.777572e+001 9.603104e+001 6.909363e+001 1.308909e+002 3.527755e+002 1.081628e+002 4.697547e+001 1.332614e+002 1.630933e+002 4.645174e+001 4.231180e+001 1.262146e+002 1.025865e+000 1.046099e+000 2.697077e+000 4.099809e+000 5.969362e+000 5.718015e+000 6.119401e+000 2.724276e+000 4.930104e+000 3.925875e+000 5.531462e+000 3.859913e+000 7.447044e-001 1.215476e-001 1.311753e-001 3.623577e-001 5.467799e-001 7.994637e-001 8.328922e-001 1.127474e+000 4.742733e-001 7.374162e-001 4.994154e-001 1.062422e+000 6.115836e-001 1.138443e-001
<GCONST> 1.336509e+002
<TRANSP> 6
 0.000000e+000 7.500930e-001 2.499070e-001 0.000000e+000 0.000000e+000 0.000000e+000
 0.000000e+000 9.088128e-001 9.118728e-002 0.000000e+000 0.000000e+000 0.000000e+000
 0.000000e+000 0.000000e+000 9.037268e-001 2.406831e-002 7.220494e-002 0.000000e+000
 0.000000e+000 0.000000e+000 0.000000e+000 9.661638e-001 3.383619e-002 0.000000e+000
 0.000000e+000 0.000000e+000 0.000000e+000 0.000000e+000 9.107024e-001 8.929761e-002
 0.000000e+000 0.000000e+000 0.000000e+000 0.000000e+000 0.000000e+000 0.000000e+000
<ENDHMM>
~h "ji_1"
<BEGINHMM>
<NUMSTATES> 6
<STATE> 2
<MEAN> 39
 -1.819385e+001 1.937002e+000 5.846164e+000 -1.190732e+001 -3.200857e+000 -8.633327e+000 1.091856e+000 -9.580087e+000 -4.545208e+000 -8.419467e+000 1.656156e+000 -2.810937e+000 6.852988e+001 1.045040e+000 1.281928e-001 1.404922e+000 -3.063217e-001 -9.704936e-001 -6.880277e-001 -2.906221e-001 -8.205783e-001 -1.723069e+000 -7.972025e-001 -7.647259e-001 -3.758325e-001 1.274043e+000 9.757077e-002 -3.688331e-002 4.948053e-002 -6.493217e-002 8.115701e-002 3.736186e-002 -4.324436e-002 8.539494e-002 -7.747640e-002 2.498874e-002 -1.064618e-001 6.114329e-002 -9.764618e-002
<VARIANCE> 39
 5.618649e+001 2.359987e+001 2.616587e+002 9.495476e+001 1.193449e+002 5.460020e+001 3.466156e+001 7.825182e+001 9.138248e+001 8.070763e+001 7.793874e+001 3.821868e+001 4.639861e+001 3.638724e+000 2.892743e+000 2.870805e+000 5.448830e+000 4.052698e+000 3.258290e+000 3.980215e+000 5.348000e+000 5.090148e+000 4.511540e+000 4.957912e+000 4.306049e+000 1.489337e+000 5.783132e-001 5.631431e-001 4.826425e-001 5.701432e-001 6.150554e-001 5.304642e-001 6.992587e-001 8.062947e-001 1.024232e+000 7.821392e-001 8.553426e-001 7.900692e-001 1.152125e-001
<GCONST> 1.368734e+002
<STATE> 3
<MEAN> 39
 -1.095929e+001 3.138004e+000 8.829285e+000 -1.080618e+001 -5.103391e+000 -9.264892e+000 -7.116147e+000 -1.277450e+001 -1.797006e+001 -6.582923e+000 -1.079338e+001 -7.575597e+000 7.060517e+001 1.135230e-001 -1.074364e-001 1.754605e-001 -1.588715e-001 -9.549931e-002 1.204832e-001 -5.024676e-002 -1.994576e-002 1.629718e-001 1.261223e-001 1.923339e-001 7.279792e-002 -8.555891e-003 1.627258e-003 -3.996568e-003 -9.757736e-002 4.558277e-002 -2.423840e-002 1.749795e-002 4.034674e-002 1.177390e-002 1.548934e-001 -2.799949e-003 9.228561e-002 -1.440141e-002 -6.175863e-002
<VARIANCE> 39
 7.558297e+000 2.168460e+001 2.003503e+001 1.286233e+002 7.994498e+001 4.344515e+001 6.671763e+001 2.112796e+001 2.342867e+001 2.267142e+001 2.690458e+001 2.563093e+001 2.751899e+001 1.909806e-001 3.514204e-001 6.174139e-001 5.900447e-001 8.057062e-001 1.115214e+000 7.884297e-001 1.341632e+000 1.486097e+000 1.141949e+000 1.450213e+000 9.507507e-001 9.465420e-002 3.650567e-002 4.106347e-002 1.405238e-001 1.130995e-001 1.192559e-001 2.312071e-001 1.675386e-001 2.425711e-001 2.566375e-001 2.146785e-001 2.635410e-001 2.164350e-001 1.427976e-002
<GCONST> 8.344105e+001
<STATE> 4
<MEAN> 39
 -9.100414e+000 -4.329777e+000 1.801331e+001 -1.317977e+001 -3.165375e+000 -6.269135e+000 4.650652e-001 -2.895372e+000 -9.196609e+000 -4.859730e+000 -2.302964e+000 2.095150e+000 7.225837e+001 5.034788e-001 1.333288e-001 2.520521e-001 3.088118e-001 1.013752e-002 5.063185e-001 -2.249472e-001 -2.261928e-002 -7.183052e-002 4.295362e-001 -3.793970e-001 -2.218278e-001 -8.118750e-001 8.829900e-002 1.491131e-001 -8.558708e-002 1.349137e-001 9.798095e-002 6.052790e-002 -1.885133e-001 -1.425212e-001 -1.394766e-001 -2.315022e-002 -1.170278e-001 -7.440513e-002 -1.976772e-001
<VARIANCE> 39
 3.481651e+001 9.000466e+001 1.672471e+002 2.580649e+002 1.744201e+002 5.909505e+001 4.992917e+001 1.524432e+002 9.258224e+001 1.822088e+002 9.671737e+001 2.699095e+001 3.111717e+001 1.033351e+000 1.967532e+000 1.540231e+000 1.637739e+000 3.067333e+000 2.301079e+000 1.770338e+000 2.900330e+000 2.861076e+000 4.234667e+000 1.963299e+000 1.463646e+000 7.694576e-001 1.288412e-001 3.684514e-001 3.600350e-001 2.467060e-001 5.251801e-001 3.759501e-001 3.106542e-001 4.524693e-001 4.534592e-001 5.595154e-001 3.391427e-001 2.532920e-001 5.595873e-002
<GCONST> 1.223668e+002
<STATE> 5
<MEAN> 39
 -3.630910e+000 5.554601e+000 1.637794e+001 -5.564348e+000 -6.142271e+000 -4.187817e+000 -3.435405e+000 -1.202208e+001 -1.231243e+001 -9.778490e+000 -5.731316e+000 -3.234381e+000 5.797660e+001 -3.260495e-001 3.156248e-001 -1.558396e+000 1.110795e+000 8.210897e-001 2.383943e-001 -4.510859e-001 -3.454902e-002 9.196370e-001 6.584532e-002 -5.803628e-001 -8.607799e-002 -1.690635e+000 -2.626050e-001 -1.496556e-001 -3.892050e-002 -1.620003e-001 1.200861e-001 -5.395992e-002 1.037830e-001 1.082215e-001 1.079500e-001 4.141778e-002 3.411345e-002 2.411896e-002 1.546995e-001
<VARIANCE> 39
 3.066469e+001 3.334458e+001 1.633080e+002 1.540470e+002 7.495954e+001 1.287125e+002 5.790826e+001 3.037832e+001 7.326722e+001 6.655704e+001 6.580312e+001 2.246692e+001 8.671294e+001 1.699778e+000 1.964674e+000 1.933175e+000 1.713853e+000 3.224223e+000 4.211481e+000 2.881312e+000 2.473993e+000 3.010261e+000 2.709559e+000 2.846957e+000 1.666739e+000 6.847745e-001 2.364332e-001 2.954495e-001 3.497929e-001 2.023952e-001 4.451681e-001 5.790068e-001 3.155608e-001 4.158927e-001 5.132543e-001 6.187850e-001 4.479312e-001 3.161337e-001 4.121296e-002
<GCONST> 1.209078e+002
<TRANSP> 6
 0.000000e+000 1.000000e+000 0.000000e+000 0.000000e+000 0.000000e+000 0.000000e+000
 0.000000e+000 8.920014e-001 1.079986e-001 0.000000e+000 0.000000e+000 0.000000e+000
 0.000000e+000 0.000000e+000 9.091383e-001 6.821762e-002 2.264410e-002 0.000000e+000
 0.000000e+000 0.000000e+000 0.000000e+000 8.814667e-001 1.026990e-001 1.583429e-002
 0.000000e+000 0.000000e+000 0.000000e+000 0.000000e+000 8.421826e-001 1.578174e-001
 0.000000e+000 0.000000e+000 0.000000e+000 0.000000e+000 0.000000e+000 0.000000e+000
<ENDHMM>
~h "jin_1"
<BEGINHMM>
<NUMSTATES> 6
<STATE> 2
<MEAN> 39
 -1.578620e+001 -2.516509e-001 2.316619e+000 -1.233659e+001 -1.399627e+001 -1.171469e+001 -5.068606e-001 -1.104220e+001 -6.736173e+000 -3.993263e+000 -4.458139e+000 -6.871657e+000 6.899936e+001 6.449300e-001 -5.503626e-001 1.218025e+000 -1.364410e+000 -1.232107e+000 -3.052915e-001 -1.145704e-001 -4.054731e-001 -1.148193e+000 4.363505e-001 -3.216231e-001 -9.150882e-002 9.995631e-001 1.682678e-001 -1.239579e-001 4.012889e-002 -1.866464e-001 1.561784e-001 1.130012e-001 1.446051e-002 1.837596e-001 -6.712040e-002 1.225868e-001 -1.311724e-001 5.230979e-002 -4.275140e-002
<VARIANCE> 39
 3.282721e+001 5.743013e+001 7.870870e+001 7.584107e+001 1.914139e+002 4.974298e+001 6.443291e+001 8.269659e+001 6.728309e+001 4.378827e+001 2.122883e+001 1.917418e+001 2.432865e+001 2.905181e+000 2.715455e+000 3.952070e+000 3.001671e+000 5.619081e+000 2.876535e+000 2.516217e+000 4.374184e+000 6.351003e+000 3.383263e+000 2.895055e+000 2.119455e+000 4.902242e-001 5.606503e-001 4.219670e-001 5.773624e-001 3.367709e-001 8.090199e-001 4.270159e-001 3.663497e-001 5.518882e-001 9.025765e-001 6.010666e-001 5.020554e-001 4.037341e-001 1.035067e-001
<GCONST> 1.265169e+002
<STATE> 3
<MEAN> 39
 -9.964637e+000 -4.665392e-001 1.018816e+001 -1.954654e+001 -8.156089e+000 -7.833055e+000 -1.021395e+001 -1.114290e+001 -1.348940e+001 -2.560691e-001 -8.911169e+000 -6.594820e+000 7.281536e+001 2.767241e-001 -1.710727e-001 -1.437636e-001 -1.541960e-001 3.162031e-001 3.060528e-001 -4.994954e-001 1.935910e-001 3.944346e-001 2.061459e-001 -4.328263e-001 7.844339e-002 -4.786370e-002 3.604288e-002 4.206319e-002 -1.749150e-001 2.091878e-001 -2.800908e-002 -2.670480e-002 -1.901117e-002 -8.943750e-002 1.496629e-001 -1.735860e-001 7.247094e-002 -8.889628e-003 -7.090630e-002
<VARIANCE> 39
 3.859881e+000 1.986488e+001 1.619982e+001 1.115478e+002 8.921581e+001 1.832253e+001 7.111162e+001 1.623244e+001 3.122135e+001 1.421660e+001 2.237412e+001 1.324791e+001 2.057338e+001 1.797444e-001 2.931679e-001 1.087124e+000 1.109994e+000 9.424229e-001 8.039635e-001 1.416908e+000 8.959675e-001 1.756153e+000 1.107922e+000 1.265058e+000 1.001333e+000 1.188515e-001 2.882266e-002 5.780075e-002 1.353194e-001 1.260256e-001 1.697106e-001 1.365995e-001 1.453642e-001 2.317024e-001 3.797742e-001 1.545985e-001 2.438899e-001 1.778499e-001 1.025320e-002
<GCONST> 8.057889e+001
<STATE> 4
<MEAN> 39
 -2.465571e+000 -7.447127e+000 -9.674103e-001 -1.732837e+001 -1.168607e+001 -9.670704e+000 -1.015263e+001 -1.076025e+001 -9.330295e+000 -6.404018e+000 -1.136084e+001 -7.347799e-001 7.020575e+001 3.615579e-001 3.553879e-001 -4.605079e-001 9.098969e-001 2.301649e-001 -3.858305e-001 6.667172e-002 -4.271183e-001 -2.433953e-001 -1.002082e+000 2.321265e-001 3.099644e-002 -7.456656e-001 -8.153178e-002 1.029057e-001 5.989892e-002 9.725014e-003 -1.225637e-002 -1.448435e-002 3.963565e-002 -4.756907e-002 -2.089959e-002 1.540398e-002 8.046437e-002 -7.991604e-002 -4.347986e-002
<VARIANCE> 39
 2.003234e+001 6.703852e+000 5.695966e+001 5.823988e+001 1.242975e+002 5.323041e+001 1.696211e+002 3.984308e+001 4.727430e+001 9.742316e+001 3.905856e+001 3.803899e+001 2.532967e+001 6.178610e-001 7.043816e-001 1.373843e+000 1.478684e+000 1.207339e+000 1.666778e+000 2.969445e+000 1.827312e+000 2.865108e+000 3.466646e+000 1.863724e+000 2.631420e+000 1.156278e-001 5.822124e-002 6.416288e-002 1.748140e-001 2.195651e-001 1.644994e-001 2.978581e-001 5.612400e-001 3.518277e-001 5.150793e-001 5.229658e-001 2.945074e-001 3.732786e-001 1.449957e-002
<GCONST> 1.040252e+002
<STATE> 5
<MEAN> 39
 -4.971281e+000 2.130486e+000 -4.723816e-001 -6.559098e+000 -3.860093e+000 -6.799063e+000 -8.962543e+000 -1.503604e+001 -9.954628e+000 -1.142866e+001 -7.757359e+000 -6.978263e+000 6.423377e+001 -2.802200e-001 -9.711614e-003 -3.207681e-001 4.734075e-001 1.529139e-001 1.897385e-001 3.246506e-001 2.200457e-001 6.499364e-001 1.401949e-001 2.389796e-001 -6.633916e-002 -4.701200e-001 -4.866707e-002 -9.695115e-002 4.433141e-002 -7.964847e-002 3.701390e-002 6.363387e-002 7.789280e-002 1.421448e-001 4.461066e-002 1.325092e-001 -5.561295e-002 1.048266e-002 3.991949e-002
<VARIANCE> 39
 6.532959e+000 6.716287e+000 1.891858e+001 2.458791e+001 4.988710e+001 4.691290e+001 2.688734e+001 1.941258e+001 1.746478e+001 2.291744e+001 1.615911e+001 1.749944e+001 9.772248e+000 4.680108e-001 5.412163e-001 5.316966e-001 5.693293e-001 1.173859e+000 1.299558e+000 1.563260e+000 2.067105e+000 2.171840e+000 2.524808e+000 1.272173e+000 1.223022e+000 1.893418e-001 6.501199e-002 1.043810e-001 9.058207e-002 7.870135e-002 1.579487e-001 1.922772e-001 1.840904e-001 2.696451e-001 4.024460e-001 3.274174e-001 2.500289e-001 2.371601e-001 2.225160e-002
<GCONST> 8.394855e+001
<TRANSP> 6
 0.000000e+000 7.370762e-001 2.629238e-001 0.000000e+000 0.000000e+000 0.000000e+000
 0.000000e+000 8.900799e-001 1.099201e-001 0.000000e+000 0.000000e+000 0.000000e+000
 0.000000e+000 0.000000e+000 9.087968e-001 6.080452e-002 3.039874e-002 0.000000e+000
 0.000000e+000 0.000000e+000 0.000000e+000 9.222215e-001 7.777847e-002 0.000000e+000
 0.000000e+000 0.000000e+000 0.000000e+000 0.000000e+000 8.840566e-001 1.159434e-001
