~o
<STREAMINFO> 1 39
<VECSIZE> 39<NULLD><MFCC_D_A_0><DIAGC>
~h "sil"
<BEGINHMM>
<NUMSTATES> 6
<STATE> 2
<MEAN> 39
 -1.427409e+001 -5.508173e+000 -2.923324e-003 -6.210589e+000 3.255805e+000 -8.574761e-001 6.986988e-001 3.087267e+000 3.848511e-001 -1.216707e+000 2.850498e+000 -1.660046e+000 5.143848e+001 -6.200215e-003 -8.814872e-003 -7.847890e-003 -2.886396e-003 7.572120e-003 1.121777e-002 -3.915065e-003 -1.899727e-003 -1.320780e-002 -1.644176e-002 -8.524205e-003 2.425801e-004 1.910996e-002 3.438598e-004 -6.633460e-004 1.131277e-004 1.708256e-003 -3.791089e-003 2.788504e-003 6.466464e-003 1.073803e-003 3.318480e-005 -2.133072e-003 2.680941e-003 5.093809e-003 -1.685286e-003
<VARIANCE> 39
 3.671049e+000 3.747988e+000 7.429043e+000 1.418614e+001 1.030217e+001 1.251590e+001 1.328335e+001 1.567939e+001 1.608937e+001 1.499468e+001 1.285406e+001 1.319493e+001 1.022022e+001 2.619541e-001 2.618779e-001 4.592396e-001 8.322059e-001 8.852410e-001 1.317760e+000 1.195713e+000 1.498945e+000 1.576497e+000 1.338975e+000 1.225953e+000 1.142184e+000 1.522767e-001 4.838350e-002 5.005293e-002 8.421191e-002 1.562882e-001 1.728653e-001 2.820400e-001 2.442771e-001 3.100709e-001 3.204441e-001 2.596264e-001 2.394114e-001 2.344099e-001 2.254583e-002
<GCONST> 7.328232e+001
<STATE> 3
<MEAN> 39
 -1.432092e+001 -6.127791e+000 -1.268554e+000 -6.584325e+000 1.655452e+000 -2.321918e+000 -1.176798e-001 1.506960e+000 -5.630823e-001 -2.208049e+000 1.810380e+000 -2.649575e+000 5.167111e+001 4.770272e-003 2.933212e-003 -6.647168e-004 4.577844e-003 1.739495e-003 -2.347177e-003 4.883227e-005 2.878238e-004 1.149229e-002 8.902936e-003 5.107617e-003 5.747726e-003 2.011696e-003 7.845905e-004 2.430090e-003 4.971948e-003 9.338821e-004 5.335907e-003 6.068779e-003 3.830366e-004 -1.463824e-004 3.968024e-004 3.806389e-003 3.744278e-003 -3.520248e-003 7.370911e-004
<VARIANCE> 39
 1.432644e+000 2.089250e+000 3.704817e+000 6.646592e+000 7.577113e+000 8.632821e+000 1.020994e+001 1.117406e+001 1.283707e+001 1.241684e+001 1.095242e+001 1.144603e+001 3.902310e-001 1.443396e-001 2.434958e-001 3.895867e-001 6.853921e-001 8.429314e-001 9.683661e-001 1.152669e+000 1.241018e+000 1.399454e+000 1.417918e+000 1.306053e+000 1.276169e+000 3.538132e-002 2.990721e-002 5.151397e-002 7.916781e-002 1.385035e-001 1.723929e-001 2.016496e-001 2.386917e-001 2.568302e-001 2.859330e-001 2.962788e-001 2.716942e-001 2.614424e-001 6.969990e-003
<GCONST> 5.997849e+001
<STATE> 4
<MEAN> 39
 -1.352824e+001 -5.124213e+000 1.325172e-001 -4.907627e+000 3.445686e+000 -2.273161e-001 1.641589e+000 3.196276e+000 9.034498e-001 -1.266060e+000 2.624729e+000 -1.753039e+000 5.190760e+001 -2.352028e-003 -8.782570e-004 -1.426139e-003 1.103704e-003 5.581762e-003 -3.190913e-003 3.489798e-003 6.360154e-003 -6.564093e-003 -8.132874e-003 -1.423738e-002 -1.396307e-002 9.439446e-004 -1.365796e-003 -3.581358e-003 -6.970808e-003 -6.253473e-003 -1.031649e-002 -6.911694e-003 -5.410204e-003 -5.995755e-003 -2.799180e-003 -5.031651e-003 -3.761200e-003 -2.812001e-003 -1.028023e-003
<VARIANCE> 39
 1.143005e+000 2.094691e+000 3.439680e+000 6.127624e+000 7.268772e+000 8.111732e+000 1.092613e+001 1.120985e+001 1.284980e+001 1.359741e+001 1.177996e+001 1.190384e+001 2.656980e-001 1.115459e-001 2.198548e-001 3.578312e-001 6.419598e-001 8.097571e-001 9.029360e-001 1.241039e+000 1.247200e+000 1.331174e+000 1.375486e+000 1.192244e+000 1.217595e+000 2.765758e-002 2.391650e-002 4.514844e-002 7.023588e-002 1.351754e-001 1.689773e-001 1.857397e-001 2.553059e-001 2.495180e-001 2.734397e-001 2.831537e-001 2.539687e-001 2.585452e-001 5.702428e-003
<GCONST> 5.744730e+001
<STATE> 5
<MEAN> 39
 -1.415880e+001 -6.272151e+000 -1.425632e+000 -6.463190e+000 1.381400e+000 -2.090989e+000 5.073269e-002 1.251316e+000 -3.791994e-001 -2.270144e+000 1.391883e+000 -2.473957e+000 5.160481e+001 -1.271239e-003 -2.292856e-003 -2.026833e-003 -4.664073e-003 -6.660457e-003 2.377520e-004 -5.685667e-003 -7.689730e-003 -6.248791e-004 -7.993380e-004 -5.324009e-003 -8.139033e-004 -1.287071e-003 -5.352236e-004 3.346374e-004 -5.305421e-005 -9.186647e-004 2.211892e-003 2.216799e-003 5.038297e-004 1.590005e-003 1.646105e-003 5.002648e-004 -2.042125e-003 -2.519047e-004 -4.873926e-005
<VARIANCE> 39
 8.367834e-001 1.950048e+000 3.379933e+000 4.933733e+000 6.650434e+000 8.221057e+000 9.664132e+000 1.063194e+001 1.162063e+001 1.215929e+001 1.101503e+001 9.758956e+000 2.263910e-001 9.563426e-002 2.153466e-001 3.779614e-001 5.473955e-001 7.539976e-001 9.326239e-001 1.155718e+000 1.198427e+000 1.285311e+000 1.351095e+000 1.220878e+000 1.043889e+000 2.461420e-002 2.009322e-002 4.419934e-002 7.817241e-002 1.126857e-001 1.568928e-001 1.963028e-001 2.446159e-001 2.428236e-001 2.605167e-001 2.729243e-001 2.526182e-001 2.155940e-001 5.036084e-003
<GCONST> 5.445546e+001
<TRANSP> 6
 0.000000e+000 5.001608e-001 4.998392e-001 0.000000e+000 0.000000e+000 0.000000e+000
 0.000000e+000 9.935862e-001 5.141455e-003 1.272319e-003 0.000000e+000 0.000000e+000
 0.000000e+000 0.000000e+000 9.934757e-001 5.814193e-003 7.101023e-004 0.000000e+000
 0.000000e+000 0.000000e+000 0.000000e+000 9.922295e-001 7.770551e-003 0.000000e+000
 0.000000e+000 0.000000e+000 0.000000e+000 0.000000e+000 9.963474e-001 3.652595e-003
 0.000000e+000 0.000000e+000 0.000000e+000 0.000000e+000 0.000000e+000 0.000000e+000
<ENDHMM>
